1110 10
0.065478 0.088460 0.080221 0.112973 0.115065 0.116748 0.092389 0.088358 0.094531 0.145776 1
0.065070 0.089710 0.079864 0.119682 0.113968 0.117233 0.089685 0.088868 0.088486 0.147434 1
0.050403 0.077798 0.074763 0.134782 0.147357 0.146567 0.091572 0.074227 0.080910 0.121620 1
0.043746 0.070656 0.069202 0.145878 0.168478 0.164345 0.095500 0.067570 0.064840 0.109785 1
0.060938 0.084124 0.075477 0.124758 0.121952 0.126237 0.086114 0.086624 0.091394 0.142383 1
0.060045 0.080272 0.078946 0.127640 0.125906 0.126722 0.091292 0.083997 0.094378 0.130803 1
0.058693 0.085578 0.078691 0.125676 0.127359 0.133966 0.091725 0.080859 0.082058 0.135394 1
0.069202 0.089685 0.079380 0.109708 0.110499 0.114096 0.089914 0.091292 0.098510 0.147715 1
0.046934 0.070656 0.077365 0.143735 0.158683 0.152918 0.093715 0.071396 0.075094 0.109504 1
0.067748 0.088103 0.081369 0.114300 0.111188 0.114249 0.089889 0.092261 0.096011 0.144883 1
0.034027 0.062060 0.012601 0.095373 0.080655 0.209213 0.046398 0.093791 0.221074 0.144807 2
0.036731 0.060428 0.012907 0.090603 0.078053 0.212886 0.044536 0.090373 0.244822 0.128660 2
0.020151 0.054382 0.007550 0.104071 0.097056 0.218090 0.050913 0.083767 0.178553 0.185466 2
0.023314 0.055862 0.008596 0.104250 0.096393 0.226048 0.052061 0.095449 0.194087 0.143939 2
0.031221 0.064101 0.012091 0.094684 0.088817 0.202862 0.046347 0.091878 0.206408 0.161591 2
0.031629 0.063590 0.011657 0.094098 0.086088 0.199112 0.048617 0.093001 0.204520 0.167687 2
0.035252 0.059892 0.012397 0.096929 0.079558 0.210081 0.045863 0.096011 0.221100 0.142919 2
0.033083 0.057316 0.011989 0.094302 0.085297 0.208372 0.043975 0.098255 0.221406 0.146006 2
0.020840 0.055505 0.008137 0.099837 0.101061 0.219110 0.052291 0.087568 0.178349 0.177303 2
0.035558 0.060325 0.012652 0.093562 0.081395 0.210132 0.042266 0.089838 0.233369 0.140904 2
0.022651 0.053132 0.010305 0.130446 0.097975 0.151005 0.036807 0.088307 0.248521 0.160851 3
0.027446 0.050480 0.014871 0.124299 0.099760 0.140037 0.038644 0.078691 0.278364 0.147408 3
0.023212 0.059229 0.012728 0.131492 0.108356 0.144628 0.043950 0.107821 0.207122 0.161463 3
0.024156 0.056601 0.015636 0.135751 0.110193 0.153556 0.039970 0.084711 0.256836 0.122590 3
0.023518 0.059127 0.011223 0.133507 0.099046 0.145750 0.039052 0.098816 0.230308 0.159652 3
0.026936 0.061040 0.012014 0.121799 0.097363 0.134221 0.045123 0.105729 0.217197 0.178579 3
0.023850 0.056958 0.011300 0.132231 0.099403 0.144041 0.040991 0.094761 0.219340 0.177125 3
0.024462 0.060504 0.011453 0.129553 0.098816 0.140725 0.042725 0.097516 0.218167 0.176079 3
0.024207 0.057061 0.012167 0.129247 0.105321 0.148301 0.040047 0.095883 0.235053 0.152714 3
0.024283 0.057928 0.010892 0.128992 0.100908 0.138302 0.041832 0.097107 0.222273 0.177482 3
0.020865 0.067672 0.018952 0.097056 0.230589 0.211688 0.065274 0.057545 0.106443 0.123916 4
0.020202 0.068845 0.018978 0.100474 0.221687 0.218830 0.059764 0.053745 0.119350 0.118126 4
0.017779 0.066320 0.021069 0.106239 0.235257 0.210693 0.069075 0.055811 0.093179 0.124579 4
0.018978 0.067774 0.020457 0.109377 0.221942 0.223829 0.062494 0.053132 0.106622 0.115396 4
0.020457 0.067570 0.017906 0.101469 0.229721 0.214672 0.065274 0.054280 0.107744 0.120906 4
0.019564 0.071906 0.017422 0.101036 0.230334 0.214111 0.063871 0.055811 0.104734 0.121212 4
0.022090 0.070324 0.018748 0.096291 0.230308 0.212759 0.060912 0.048592 0.124248 0.115728 4
0.020993 0.075043 0.020559 0.097260 0.230283 0.204469 0.063080 0.061805 0.103790 0.122717 4
0.018110 0.066447 0.019539 0.108637 0.234134 0.217325 0.064840 0.054816 0.096240 0.119911 4
0.021605 0.068768 0.018672 0.097490 0.230053 0.211177 0.063335 0.055122 0.114912 0.118865 4
0.013953 0.039843 0.029206 0.184114 0.238215 0.155826 0.041654 0.077492 0.114606 0.105091 5
0.019029 0.042547 0.029742 0.185593 0.242577 0.144934 0.036093 0.075707 0.131262 0.092516 5
0.014947 0.038950 0.026860 0.183374 0.241378 0.162126 0.039664 0.080451 0.121926 0.090322 5
0.015917 0.039180 0.027115 0.186180 0.245817 0.160545 0.037139 0.078614 0.122462 0.087032 5
0.018289 0.041858 0.029028 0.172788 0.246659 0.150265 0.040812 0.078538 0.116264 0.105499 5
0.016325 0.043771 0.027599 0.171411 0.249388 0.145215 0.039664 0.078410 0.125803 0.102413 5
0.017626 0.042190 0.030431 0.173630 0.244592 0.148403 0.038542 0.066804 0.144883 0.092899 5
0.014565 0.038389 0.028339 0.187379 0.246939 0.155979 0.041220 0.079405 0.114198 0.093587 5
0.014998 0.038593 0.027064 0.177916 0.261096 0.153607 0.038032 0.078614 0.117182 0.092899 5
0.013723 0.039690 0.028798 0.183374 0.245077 0.149015 0.041475 0.077926 0.114070 0.106851 5
0.110856 0.127334 0.017294 0.062162 0.063437 0.071804 0.029793 0.118304 0.151031 0.247985 6
0.105168 0.141593 0.020993 0.056576 0.061244 0.071243 0.032471 0.128354 0.142307 0.240052 6
0.107438 0.117922 0.019488 0.066600 0.064662 0.080961 0.037420 0.111647 0.156872 0.236991 6
0.105397 0.142868 0.027242 0.050454 0.054357 0.068131 0.038108 0.133991 0.145291 0.234160 6
0.110371 0.124273 0.018978 0.062494 0.070988 0.071421 0.032803 0.115294 0.159627 0.233752 6
0.105882 0.134144 0.019972 0.059764 0.069432 0.070171 0.035430 0.120651 0.155112 0.229441 6
0.110728 0.124222 0.024130 0.063539 0.058616 0.075145 0.033696 0.122641 0.156591 0.230691 6
0.111749 0.134298 0.017983 0.054943 0.059713 0.068743 0.030737 0.126594 0.145291 0.249949 6
0.105729 0.133609 0.021426 0.057316 0.060325 0.071880 0.036629 0.120906 0.155673 0.236506 6
0.112259 0.126620 0.017855 0.062366 0.059560 0.073538 0.029997 0.118432 0.148786 0.250587 6
0.084328 0.141720 0.022753 0.069508 0.070580 0.081548 0.021324 0.130395 0.132410 0.245434 7
0.105933 0.139654 0.023773 0.066167 0.055377 0.068590 0.024793 0.127640 0.141848 0.246225 7
0.096113 0.150112 0.023850 0.057673 0.063157 0.064075 0.024181 0.147510 0.131747 0.241582 7
0.107464 0.147026 0.027268 0.056015 0.047266 0.057596 0.026349 0.141057 0.139629 0.250332 7
0.075936 0.137180 0.022472 0.067901 0.072646 0.085961 0.023288 0.125472 0.132818 0.256326 7
0.091394 0.129298 0.025788 0.071396 0.058030 0.081522 0.025916 0.112616 0.139833 0.264208 7
0.091725 0.137154 0.023135 0.066779 0.059356 0.075860 0.025788 0.119172 0.137843 0.263187 7
0.109096 0.127844 0.027344 0.068309 0.049459 0.075324 0.024105 0.112106 0.146031 0.260382 7
0.105244 0.129783 0.029818 0.068131 0.050709 0.071753 0.026094 0.120906 0.140572 0.256989 7
0.094225 0.136109 0.022472 0.065784 0.060147 0.077467 0.021375 0.120702 0.141210 0.260509 7
0.041169 0.072875 0.030227 0.101903 0.125574 0.156591 0.065886 0.085348 0.184573 0.135853 8
0.039537 0.075477 0.031808 0.101648 0.147893 0.160239 0.066065 0.085961 0.156209 0.135165 8
0.042266 0.074839 0.034231 0.110142 0.145189 0.158555 0.068437 0.086649 0.136007 0.143684 8
0.046475 0.078716 0.035047 0.097949 0.146949 0.145674 0.068896 0.090705 0.146031 0.143557 8
0.044358 0.074431 0.030380 0.097592 0.133940 0.147817 0.062621 0.085884 0.179267 0.143710 8
0.039741 0.072824 0.026860 0.098485 0.137027 0.153403 0.057902 0.090246 0.176564 0.146949 8
0.041909 0.068411 0.029869 0.095449 0.127589 0.155086 0.056831 0.078895 0.226610 0.119350 8
0.039001 0.073768 0.030533 0.108892 0.133609 0.178196 0.066192 0.085221 0.154500 0.130089 8
0.041195 0.071957 0.032752 0.103637 0.148658 0.160978 0.061473 0.091751 0.141950 0.145648 8
0.043644 0.074686 0.032573 0.103484 0.126518 0.153581 0.065682 0.079686 0.191664 0.128482 8
0.052418 0.082007 0.027446 0.102643 0.123431 0.121467 0.066906 0.102209 0.145368 0.176104 9
0.055122 0.087466 0.035405 0.110244 0.124120 0.127436 0.070911 0.094455 0.124987 0.169855 9
0.050352 0.078232 0.030175 0.112080 0.118330 0.129502 0.072799 0.100219 0.143302 0.165009 9
0.043771 0.074737 0.027931 0.117896 0.127564 0.128660 0.068207 0.095807 0.155520 0.159907 9
0.057979 0.086318 0.029920 0.096623 0.105066 0.111188 0.072875 0.100602 0.154423 0.185007 9
0.047623 0.076778 0.028926 0.112795 0.139118 0.129222 0.065861 0.096062 0.141312 0.162305 9
0.052852 0.081930 0.031247 0.109351 0.122079 0.127589 0.069891 0.098153 0.137052 0.169855 9
0.050990 0.077237 0.035252 0.115014 0.125115 0.126696 0.073717 0.093817 0.131543 0.170620 9
0.041348 0.070988 0.032471 0.128048 0.150699 0.143327 0.069151 0.085910 0.138047 0.140011 9
0.052214 0.083537 0.029028 0.105576 0.117922 0.120217 0.070682 0.101597 0.144348 0.174880 9
0.055836 0.076115 0.029869 0.068360 0.106826 0.139450 0.065172 0.103127 0.211101 0.144143 10
0.059815 0.079227 0.031859 0.071345 0.112131 0.141975 0.071472 0.093893 0.213320 0.124962 10
0.058438 0.079660 0.033262 0.074559 0.110142 0.151668 0.071880 0.095628 0.185007 0.139756 10
0.058591 0.084303 0.034792 0.076650 0.113866 0.158657 0.077109 0.089583 0.183272 0.123176 10
0.051908 0.074686 0.027701 0.071804 0.097898 0.148301 0.057673 0.092465 0.254107 0.123457 10
0.056652 0.072544 0.029512 0.070860 0.097286 0.146082 0.057698 0.085068 0.263825 0.120472 10
0.058616 0.080374 0.031374 0.068462 0.109402 0.143531 0.065427 0.084762 0.237170 0.120881 10
0.058999 0.079252 0.032573 0.072646 0.117029 0.147485 0.070605 0.091598 0.200082 0.129732 10
0.059713 0.078257 0.033389 0.072518 0.110754 0.163988 0.072391 0.086318 0.206331 0.116340 10
0.054892 0.073309 0.029155 0.068896 0.105270 0.146439 0.061065 0.089404 0.248903 0.122666 10
0.050990 0.092465 0.027013 0.106061 0.091674 0.126645 0.065172 0.103688 0.142154 0.194138 11
0.045939 0.087236 0.031731 0.128099 0.116213 0.135751 0.060912 0.097643 0.123151 0.173324 11
0.047546 0.087797 0.033874 0.124834 0.117463 0.137843 0.058897 0.098051 0.126314 0.167381 11
0.044587 0.086012 0.034282 0.132282 0.123049 0.140955 0.060351 0.095271 0.124630 0.158581 11
0.044842 0.085655 0.032038 0.127436 0.124936 0.135624 0.057316 0.103000 0.117539 0.171615 11
0.044154 0.084685 0.028109 0.121671 0.123814 0.138251 0.057086 0.102362 0.123788 0.176079 11
0.044970 0.085986 0.028977 0.124375 0.129936 0.139169 0.057418 0.101087 0.116978 0.171105 11
0.049357 0.088613 0.025686 0.112208 0.094200 0.136848 0.062034 0.102694 0.143225 0.185134 11
0.044944 0.088996 0.028364 0.118177 0.112642 0.137792 0.062647 0.101801 0.131543 0.173095 11
0.047801 0.088460 0.028849 0.112999 0.103000 0.133456 0.063565 0.103739 0.135267 0.182864 11
0.056015 0.095960 0.047011 0.139731 0.113407 0.108433 0.059407 0.105908 0.105372 0.168758 12
0.054102 0.096801 0.042164 0.134757 0.114325 0.106163 0.063157 0.106239 0.109453 0.172840 12
0.058897 0.096444 0.056958 0.146694 0.123380 0.101622 0.062315 0.098714 0.092567 0.162407 12
0.053132 0.098383 0.049357 0.144194 0.126722 0.107106 0.061116 0.103357 0.095118 0.161514 12
0.058846 0.100500 0.050148 0.137282 0.115065 0.102234 0.060325 0.101826 0.101724 0.172049 12
0.057367 0.098204 0.048413 0.138353 0.119299 0.105908 0.060632 0.102617 0.098995 0.170212 12
0.057673 0.097082 0.048107 0.137716 0.120523 0.102056 0.060045 0.103484 0.104454 0.168860 12
0.053158 0.100168 0.046016 0.144756 0.112693 0.103867 0.058234 0.104581 0.104530 0.171998 12
0.054765 0.097516 0.054000 0.143557 0.126900 0.101367 0.057341 0.103153 0.097107 0.164294 12
0.056499 0.096980 0.048413 0.139654 0.115677 0.103382 0.057902 0.104428 0.106112 0.170952 12
0.053949 0.090501 0.042929 0.073691 0.193322 0.174625 0.075962 0.072135 0.108866 0.114019 13
0.055096 0.087287 0.044001 0.078870 0.197352 0.164243 0.074712 0.073411 0.108152 0.116876 13
0.054535 0.088027 0.041679 0.080834 0.194572 0.175135 0.077314 0.071064 0.100627 0.116213 13
0.054127 0.088537 0.048082 0.083665 0.194317 0.169549 0.081446 0.073640 0.088307 0.118330 13
0.055607 0.090348 0.037726 0.074023 0.187966 0.172993 0.071982 0.073258 0.121544 0.114555 13
0.056499 0.087313 0.044562 0.079099 0.186614 0.178502 0.077441 0.071702 0.108841 0.109428 13
0.055351 0.083665 0.046577 0.079915 0.194189 0.177967 0.081471 0.070529 0.099429 0.110907 13
0.050990 0.087772 0.038465 0.080502 0.191919 0.170722 0.071727 0.078283 0.112233 0.117386 13
0.055479 0.087389 0.043031 0.076803 0.194393 0.177507 0.078155 0.072773 0.101928 0.112540 13
0.052903 0.090424 0.041552 0.072033 0.191384 0.171233 0.073972 0.074686 0.117131 0.114682 13
0.049638 0.079762 0.058974 0.143863 0.170773 0.115983 0.072212 0.087491 0.086139 0.135165 14
0.045225 0.075656 0.059611 0.148148 0.185976 0.121569 0.073921 0.083002 0.082364 0.124528 14
0.044970 0.080808 0.042649 0.133124 0.147128 0.119682 0.073181 0.090195 0.096878 0.171386 14
0.046373 0.079558 0.048031 0.144705 0.152944 0.124707 0.074304 0.089430 0.096164 0.143786 14
0.049434 0.080476 0.054382 0.145393 0.157407 0.120983 0.073028 0.088078 0.090093 0.140725 14
0.052036 0.079252 0.055071 0.142409 0.166080 0.115116 0.070937 0.087695 0.090526 0.140878 14
0.046602 0.074763 0.060198 0.150061 0.178171 0.122334 0.073742 0.084303 0.082466 0.127359 14
0.046500 0.076829 0.058438 0.148378 0.175824 0.119886 0.073360 0.086267 0.082390 0.132129 14
0.046602 0.080630 0.048209 0.133532 0.155724 0.119325 0.069865 0.091419 0.095909 0.158785 14
0.050480 0.079890 0.060300 0.141312 0.173120 0.116213 0.070503 0.087899 0.086139 0.134144 14
0.067748 0.084201 0.076217 0.106902 0.134042 0.132971 0.087159 0.083895 0.086853 0.140011 15
0.066473 0.087619 0.074737 0.108407 0.135394 0.129961 0.088766 0.086471 0.084175 0.137996 15
0.060555 0.082058 0.076956 0.111698 0.146924 0.139323 0.090526 0.084175 0.080196 0.127589 15
0.063897 0.082721 0.075707 0.109963 0.138200 0.133864 0.091572 0.083767 0.084940 0.135369 15
0.068973 0.086241 0.075324 0.102592 0.132563 0.129579 0.089226 0.087593 0.087134 0.140776 15
0.067085 0.085655 0.075809 0.107923 0.138073 0.130701 0.090399 0.084175 0.085935 0.134247 15
0.069049 0.086930 0.075171 0.103433 0.132461 0.127257 0.088664 0.086675 0.088639 0.141720 15
0.066039 0.088613 0.073156 0.108509 0.135624 0.130395 0.087313 0.087415 0.083588 0.139348 15
0.063897 0.086445 0.075605 0.112489 0.139042 0.134247 0.089455 0.085476 0.082007 0.131339 15
0.066677 0.082645 0.075656 0.107004 0.140190 0.134093 0.087772 0.083308 0.086267 0.136389 15
0.051117 0.088409 0.049893 0.112131 0.159142 0.143302 0.077237 0.084456 0.099301 0.135012 16
0.053642 0.091649 0.053591 0.115141 0.165672 0.139348 0.078053 0.085833 0.088741 0.128329 16
0.036374 0.076982 0.041016 0.120141 0.160239 0.157356 0.081242 0.075681 0.089098 0.161871 16
0.036399 0.074992 0.036654 0.114198 0.138532 0.150520 0.076497 0.081369 0.097337 0.193501 16
0.050454 0.088613 0.046679 0.112948 0.162458 0.147000 0.075783 0.084175 0.096113 0.135777 16
0.051143 0.090067 0.050760 0.113101 0.162458 0.143863 0.078155 0.083155 0.097031 0.130267 16
0.054076 0.092491 0.052291 0.112565 0.155163 0.140394 0.079686 0.086037 0.087083 0.140215 16
0.055020 0.093842 0.049969 0.111264 0.159091 0.136874 0.074380 0.088282 0.100372 0.130905 16
0.039027 0.074610 0.039409 0.114019 0.145725 0.153505 0.076038 0.083690 0.096138 0.177839 16
0.052622 0.089124 0.050556 0.111902 0.164958 0.142281 0.076319 0.083078 0.101495 0.127666 16
0.046653 0.074610 0.053872 0.125293 0.165901 0.157178 0.083461 0.076650 0.090807 0.125574 17
0.049765 0.075145 0.056219 0.122309 0.162841 0.146286 0.084787 0.077288 0.086394 0.138965 17
0.050429 0.078461 0.043465 0.108178 0.137052 0.125931 0.078461 0.084940 0.122921 0.170161 17
0.049969 0.078257 0.050837 0.117692 0.154168 0.137639 0.079431 0.080272 0.093511 0.158224 17
0.058055 0.081981 0.050811 0.108841 0.143302 0.134553 0.080987 0.083359 0.115830 0.142281 17
0.060172 0.084762 0.046118 0.103433 0.121620 0.124554 0.082772 0.085961 0.120983 0.169626 17
0.061422 0.088052 0.052444 0.107489 0.125446 0.122768 0.076880 0.091445 0.109861 0.164192 17
0.049230 0.075579 0.055836 0.121850 0.151923 0.140827 0.083690 0.079201 0.092363 0.149500 17
0.054739 0.079558 0.051194 0.107183 0.127079 0.122462 0.080247 0.084124 0.105831 0.187583 17
0.048464 0.076242 0.055377 0.121697 0.169319 0.152612 0.084124 0.077263 0.089404 0.125497 17
0.037675 0.072620 0.021222 0.102260 0.308361 0.114963 0.041552 0.086751 0.089965 0.124630 18
0.036348 0.068564 0.025457 0.135165 0.256938 0.136542 0.048975 0.076854 0.087210 0.127946 18
0.030813 0.087568 0.025661 0.103739 0.253393 0.148123 0.042521 0.098561 0.080527 0.129094 18
0.037292 0.101112 0.024564 0.089226 0.278211 0.131390 0.041322 0.099480 0.077824 0.119580 18
0.034843 0.081650 0.027854 0.097363 0.295939 0.130293 0.041195 0.090501 0.076523 0.123839 18
0.040353 0.089302 0.024844 0.090526 0.290736 0.113254 0.042139 0.098051 0.080655 0.130140 18
0.040098 0.091878 0.024462 0.094353 0.274258 0.122181 0.044638 0.096342 0.081675 0.130114 18
0.040583 0.072850 0.023390 0.125880 0.255841 0.129783 0.047852 0.081777 0.087338 0.134706 18
0.037471 0.096368 0.024946 0.093562 0.266912 0.132946 0.038567 0.098995 0.081395 0.128839 18
0.038083 0.075987 0.020585 0.098306 0.311397 0.116799 0.041169 0.085731 0.084583 0.127359 18
0.109300 0.105295 0.055530 0.079864 0.065019 0.078206 0.037190 0.119835 0.138965 0.210795 19
0.107004 0.102872 0.061524 0.080757 0.068513 0.072033 0.037879 0.120447 0.141312 0.207657 19
0.110652 0.109759 0.054255 0.069151 0.063999 0.080196 0.042037 0.124018 0.133940 0.211994 19
0.110677 0.106086 0.055505 0.068411 0.068360 0.085119 0.042572 0.121977 0.132537 0.208754 19
0.111009 0.106035 0.053107 0.074839 0.067059 0.081344 0.038670 0.124885 0.133634 0.209417 19
0.109019 0.102439 0.058514 0.079737 0.067748 0.077492 0.041424 0.123457 0.133609 0.206561 19
0.108943 0.103484 0.057622 0.074100 0.068998 0.080196 0.041628 0.120472 0.134706 0.209851 19
0.104607 0.103484 0.062060 0.081191 0.067493 0.074049 0.037981 0.122411 0.138302 0.208423 19
0.109912 0.105219 0.055581 0.073411 0.064993 0.081395 0.042088 0.122232 0.133073 0.212096 19
0.108815 0.104046 0.056805 0.078487 0.067034 0.076472 0.038542 0.120855 0.137767 0.211177 19
0.045276 0.059586 0.070580 0.139960 0.196791 0.175722 0.090271 0.066269 0.067825 0.087721 20
0.050556 0.064866 0.069483 0.135675 0.183859 0.165978 0.092338 0.068360 0.073028 0.095858 20
0.047419 0.059229 0.072391 0.135879 0.188374 0.172406 0.095756 0.067059 0.073309 0.088180 20
0.053107 0.063233 0.073385 0.131466 0.173681 0.164243 0.094174 0.067850 0.080298 0.098561 20
0.045021 0.058999 0.071957 0.142077 0.193960 0.176589 0.093715 0.063284 0.068156 0.086241 20
0.045480 0.060683 0.072314 0.141210 0.196485 0.171437 0.093103 0.063667 0.068973 0.086649 20
0.050658 0.064152 0.072110 0.131721 0.180568 0.172227 0.095858 0.068513 0.071829 0.092363 20
0.045582 0.060581 0.073360 0.139782 0.193016 0.172049 0.090884 0.065912 0.068462 0.090373 20
0.045684 0.057673 0.073003 0.141899 0.195261 0.170824 0.096954 0.063335 0.072824 0.082543 20
0.043261 0.058310 0.071345 0.144450 0.197097 0.175569 0.093001 0.063846 0.067825 0.085297 20
0.043006 0.057214 0.046806 0.129222 0.235333 0.173554 0.074023 0.062672 0.076319 0.101852 21
0.054306 0.065325 0.046832 0.119707 0.220054 0.152127 0.068080 0.067646 0.085425 0.120498 21
0.044970 0.057953 0.046934 0.125166 0.233752 0.165723 0.070426 0.065682 0.081165 0.108229 21
0.053540 0.064738 0.047113 0.112948 0.216534 0.157637 0.072824 0.069202 0.090552 0.114912 21
0.040812 0.058208 0.047393 0.129094 0.239950 0.175339 0.074508 0.061091 0.074100 0.099505 21
0.049000 0.061091 0.048107 0.125344 0.219059 0.165187 0.071855 0.066090 0.081599 0.112667 21
0.057545 0.062927 0.046398 0.116366 0.210208 0.157025 0.069712 0.069151 0.088256 0.122411 21
0.051729 0.059662 0.045812 0.122488 0.220921 0.165748 0.073105 0.065886 0.081293 0.113356 21
0.048337 0.061754 0.047062 0.121034 0.226227 0.162075 0.068309 0.066600 0.086369 0.112233 21
0.043490 0.057673 0.046781 0.127206 0.236506 0.170926 0.074329 0.062060 0.076727 0.104301 21
0.063182 0.085552 0.074839 0.116595 0.124273 0.120804 0.088435 0.085425 0.088154 0.152740 22
0.056831 0.080834 0.072620 0.121722 0.132333 0.132104 0.098204 0.083435 0.082517 0.139399 22
0.056703 0.084711 0.071192 0.122207 0.125752 0.129859 0.093052 0.084048 0.083231 0.149245 22
0.053234 0.081038 0.070324 0.129247 0.133099 0.133226 0.096189 0.081930 0.081318 0.140394 22
0.057316 0.084889 0.071676 0.122054 0.125421 0.128201 0.096393 0.083920 0.082772 0.147357 22
0.055428 0.084634 0.073156 0.124477 0.129324 0.136899 0.094608 0.083308 0.080349 0.137818 22
0.056346 0.080630 0.074788 0.125446 0.131568 0.129783 0.097898 0.081599 0.082007 0.139935 22
0.057953 0.084150 0.071906 0.122003 0.127461 0.125421 0.093230 0.085195 0.085757 0.146924 22
0.052240 0.081548 0.072340 0.127181 0.135343 0.137103 0.096189 0.079915 0.078767 0.139374 22
0.058208 0.085170 0.071855 0.123074 0.125115 0.125497 0.091598 0.086496 0.084813 0.148174 22
0.063539 0.081242 0.034053 0.089226 0.143378 0.155800 0.054841 0.081318 0.135343 0.161259 23
0.070758 0.087950 0.034639 0.086547 0.120498 0.139909 0.054892 0.088435 0.133685 0.182685 23
0.065248 0.082262 0.033389 0.091343 0.132716 0.145240 0.057928 0.087159 0.132691 0.172023 23
0.068564 0.084328 0.036833 0.087440 0.124783 0.134961 0.058948 0.089098 0.133022 0.182022 23
0.065708 0.081395 0.033185 0.089226 0.141236 0.149704 0.054127 0.087236 0.131237 0.166947 23
0.070656 0.087925 0.035481 0.087976 0.120370 0.137307 0.059560 0.086267 0.136568 0.177890 23
0.073309 0.091139 0.034435 0.089914 0.117131 0.134451 0.057520 0.088409 0.133150 0.180543 23
0.067697 0.085501 0.034282 0.089812 0.128660 0.146337 0.057596 0.084201 0.132920 0.172993 23
0.068335 0.084124 0.035736 0.089404 0.121187 0.136746 0.058463 0.090526 0.133991 0.181487 23
0.064560 0.080655 0.035047 0.089889 0.145572 0.154627 0.054102 0.083461 0.131288 0.160800 23
0.025763 0.053872 0.034690 0.114963 0.210234 0.189037 0.065095 0.064866 0.098689 0.142792 24
0.029793 0.057316 0.034716 0.124069 0.202811 0.199163 0.063590 0.069483 0.112897 0.106163 24
0.029385 0.058897 0.035966 0.118559 0.210438 0.198679 0.068131 0.063284 0.100296 0.116366 24
0.028875 0.055071 0.036450 0.124426 0.209647 0.204979 0.068386 0.063284 0.110295 0.098587 24
0.027650 0.054969 0.035762 0.115269 0.207683 0.188170 0.065197 0.062239 0.099174 0.143888 24
0.029767 0.059101 0.034920 0.113713 0.201306 0.190261 0.066881 0.066090 0.108968 0.128992 24
0.033007 0.056729 0.035379 0.122411 0.199852 0.188374 0.065861 0.068156 0.113789 0.116442 24
0.026604 0.054025 0.035558 0.118024 0.202709 0.199316 0.065631 0.066422 0.106316 0.125395 24
0.030839 0.056576 0.034155 0.118381 0.212478 0.201536 0.065657 0.064101 0.101775 0.114504 24
0.025814 0.053617 0.033517 0.114402 0.205923 0.189853 0.065325 0.063310 0.100041 0.148199 24
0.040787 0.090782 0.063743 0.215463 0.123176 0.059535 0.077569 0.149628 0.093154 0.086165 25
0.043184 0.091241 0.065759 0.215131 0.117769 0.060376 0.075911 0.155061 0.091955 0.083614 25
0.039792 0.093638 0.077875 0.215284 0.114988 0.046526 0.060887 0.157433 0.103510 0.090067 25
0.040404 0.089506 0.076548 0.218728 0.116850 0.047903 0.062111 0.158224 0.095577 0.094149 25
0.041577 0.093103 0.073564 0.211611 0.114147 0.049306 0.062443 0.152867 0.113305 0.088078 25
0.041832 0.092210 0.074814 0.216789 0.111851 0.045990 0.063335 0.153199 0.113840 0.086139 25
0.041934 0.091955 0.075375 0.212045 0.115039 0.048643 0.060402 0.153097 0.113560 0.087950 25
0.041348 0.091725 0.063335 0.215947 0.123151 0.061728 0.073538 0.150724 0.091827 0.086675 25
0.041603 0.091980 0.077467 0.215259 0.113560 0.047291 0.062672 0.159269 0.104199 0.086700 25
0.041042 0.087619 0.067544 0.220207 0.120549 0.054382 0.068156 0.153046 0.100015 0.087440 25
0.035073 0.071651 0.049893 0.166998 0.188068 0.113866 0.062825 0.086139 0.086292 0.139195 26
0.040787 0.071396 0.048771 0.167177 0.205413 0.121569 0.065682 0.082747 0.081471 0.114988 26
0.048975 0.076191 0.048005 0.149143 0.176283 0.134833 0.064866 0.085808 0.083971 0.131925 26
0.042241 0.068743 0.045276 0.156209 0.220080 0.133303 0.061448 0.080094 0.076982 0.115626 26
0.046653 0.076089 0.052444 0.154270 0.184088 0.122692 0.071931 0.087185 0.079686 0.124962 26
0.045582 0.074329 0.050786 0.159831 0.198016 0.122462 0.068309 0.084660 0.078130 0.117896 26
0.044613 0.074457 0.049816 0.156030 0.205897 0.123712 0.065810 0.085655 0.077033 0.116978 26
0.041450 0.071702 0.051857 0.168631 0.199648 0.114682 0.062213 0.085833 0.085144 0.118840 26
0.046041 0.070018 0.045863 0.154449 0.203780 0.133609 0.061269 0.082568 0.078053 0.124350 26
0.036731 0.072493 0.051117 0.168988 0.190669 0.114912 0.064764 0.084609 0.084303 0.131415 26
0.044740 0.072620 0.051321 0.122079 0.174166 0.161208 0.084175 0.073615 0.090322 0.125752 27
0.048490 0.073003 0.051627 0.122054 0.164065 0.153607 0.083027 0.078487 0.101520 0.124120 27
0.038338 0.065044 0.049026 0.130982 0.201663 0.174625 0.086369 0.065019 0.080170 0.108764 27
0.041705 0.065376 0.050760 0.129987 0.188093 0.169243 0.086853 0.069814 0.082823 0.115345 27
0.047546 0.071676 0.052622 0.121544 0.175186 0.156540 0.086012 0.070962 0.091547 0.126365 27
0.040379 0.067978 0.052877 0.128966 0.191333 0.171003 0.087057 0.066983 0.079737 0.113687 27
0.043516 0.069534 0.052852 0.122513 0.187940 0.163274 0.083129 0.071855 0.088001 0.117386 27
0.049791 0.076140 0.048260 0.119554 0.160417 0.147919 0.085782 0.076166 0.104632 0.131339 27
0.036425 0.064177 0.048873 0.132282 0.207224 0.178604 0.085246 0.065963 0.073309 0.107897 27
0.048796 0.072467 0.051219 0.122411 0.174166 0.157280 0.085731 0.071600 0.087568 0.128762 27
0.060963 0.097158 0.061728 0.122232 0.131594 0.132384 0.081318 0.086267 0.079635 0.146720 28
0.059790 0.096699 0.065708 0.120549 0.134119 0.126110 0.077798 0.088333 0.083129 0.147766 28
0.061754 0.096444 0.068105 0.118942 0.141236 0.124248 0.077339 0.087950 0.081701 0.142281 28
0.059739 0.096113 0.063437 0.122539 0.140139 0.126569 0.076217 0.085527 0.082849 0.146873 28
0.063514 0.092593 0.064891 0.120421 0.137027 0.130471 0.079278 0.085757 0.081548 0.144501 28
0.059586 0.094378 0.065963 0.122692 0.139144 0.129349 0.079278 0.086012 0.081318 0.142281 28
0.056321 0.095092 0.063412 0.125370 0.144373 0.130293 0.077033 0.086496 0.079839 0.141771 28
0.059101 0.101367 0.060632 0.124503 0.130293 0.125242 0.077773 0.089812 0.081956 0.149321 28
0.059764 0.093536 0.064815 0.121289 0.152357 0.126314 0.075426 0.084889 0.081548 0.140062 28
0.060657 0.099174 0.062621 0.120370 0.132104 0.129859 0.083359 0.085578 0.080068 0.146210 28
0.055122 0.071013 0.028186 0.089506 0.061958 0.127921 0.058897 0.097082 0.267957 0.142358 29
0.058923 0.079992 0.033160 0.101724 0.083078 0.114861 0.060530 0.089761 0.216560 0.161412 29
0.050913 0.069228 0.023620 0.086343 0.052061 0.127793 0.044587 0.092261 0.303898 0.149296 29
0.059407 0.088690 0.029920 0.092338 0.068182 0.112642 0.055862 0.088894 0.228803 0.175263 29
0.048388 0.071651 0.021630 0.095169 0.052648 0.137358 0.038567 0.101724 0.283440 0.149424 29
0.054841 0.073054 0.028339 0.091266 0.070631 0.130828 0.051117 0.095398 0.258494 0.146031 29
0.062570 0.085476 0.032446 0.092720 0.066881 0.095322 0.061397 0.088792 0.265407 0.148990 29
0.057673 0.075426 0.032930 0.091776 0.074431 0.122641 0.063233 0.092848 0.253469 0.135573 29
0.056423 0.073334 0.028798 0.088996 0.068054 0.116391 0.060989 0.091776 0.275712 0.139527 29
0.055479 0.072008 0.028773 0.088868 0.062978 0.129961 0.051780 0.095500 0.276987 0.137665 29
0.060810 0.069687 0.055224 0.115524 0.129273 0.133762 0.076446 0.090731 0.119427 0.149117 30
0.058157 0.068947 0.054663 0.117437 0.129757 0.131390 0.079380 0.088154 0.125421 0.146694 30
0.060249 0.067799 0.055377 0.115218 0.131441 0.132359 0.080068 0.090629 0.121875 0.144985 30
0.059586 0.068335 0.056142 0.120115 0.134017 0.134986 0.082262 0.089634 0.112004 0.142919 30
0.059917 0.070350 0.056652 0.116850 0.128507 0.135190 0.079176 0.089404 0.117998 0.145954 30
0.064330 0.072314 0.057800 0.117386 0.124324 0.123457 0.082696 0.092184 0.117922 0.147587 30
0.063463 0.068411 0.055351 0.115932 0.121773 0.128686 0.079788 0.094123 0.120268 0.152204 30
0.062392 0.068845 0.059229 0.121671 0.131849 0.126569 0.082798 0.090093 0.114453 0.142103 30
0.062927 0.069916 0.060555 0.114096 0.128201 0.128252 0.084813 0.090424 0.116927 0.143888 30
0.063259 0.069610 0.055607 0.113483 0.124426 0.129553 0.079201 0.091470 0.122207 0.151184 30
0.044791 0.070197 0.053540 0.124834 0.170340 0.161820 0.087287 0.070835 0.090144 0.126212 31
0.040098 0.064636 0.050352 0.133532 0.183782 0.172840 0.083384 0.069202 0.083741 0.118432 31
0.046016 0.073105 0.063795 0.131747 0.159040 0.158759 0.091853 0.074023 0.082134 0.119529 31
0.048592 0.070656 0.060759 0.124783 0.161897 0.156107 0.087695 0.073436 0.089889 0.126186 31
0.040200 0.066524 0.059841 0.138736 0.176793 0.171360 0.088256 0.068896 0.080298 0.109096 31
0.039741 0.064279 0.049918 0.130012 0.189700 0.178477 0.083104 0.066855 0.083129 0.114784 31
0.040225 0.068692 0.049230 0.129681 0.178069 0.171513 0.086828 0.071549 0.087517 0.116697 31
0.037063 0.067391 0.043950 0.132844 0.177941 0.171028 0.082568 0.072059 0.094837 0.120319 31
0.045863 0.069202 0.058132 0.129834 0.162330 0.161744 0.089659 0.073845 0.086088 0.123304 31
0.042521 0.066549 0.053821 0.131976 0.184599 0.166845 0.088078 0.069687 0.082568 0.113356 31
0.046092 0.066881 0.070784 0.139323 0.171666 0.158785 0.093638 0.069177 0.069585 0.114070 32
0.047546 0.068743 0.067978 0.131823 0.172253 0.162203 0.094965 0.067442 0.069712 0.117335 32
0.040404 0.062978 0.063259 0.143888 0.189088 0.172967 0.090577 0.063590 0.063718 0.109530 32
0.042215 0.062774 0.063692 0.140445 0.190516 0.170824 0.091827 0.064993 0.065733 0.106979 32
0.040991 0.064381 0.065988 0.141771 0.184599 0.170110 0.091827 0.063233 0.066498 0.110601 32
0.044842 0.066167 0.064840 0.138685 0.179267 0.166922 0.093562 0.065223 0.068233 0.112259 32
0.046220 0.065810 0.069508 0.138098 0.172457 0.164779 0.095016 0.064968 0.068411 0.114733 32
0.045939 0.068054 0.068335 0.137129 0.178094 0.166259 0.091853 0.065631 0.068539 0.110167 32
0.040430 0.062468 0.067059 0.140827 0.190134 0.176487 0.091164 0.062800 0.063055 0.105576 32
0.045353 0.066294 0.070018 0.136466 0.170187 0.160188 0.094149 0.068998 0.069967 0.118381 32
0.054306 0.073028 0.073283 0.118559 0.153505 0.154525 0.093562 0.074584 0.086751 0.117896 33
0.051117 0.072824 0.074712 0.123125 0.156540 0.158045 0.097822 0.071268 0.082237 0.112310 33
0.053005 0.075324 0.073513 0.123023 0.154474 0.153250 0.097541 0.074227 0.078487 0.117156 33
0.052597 0.072289 0.077109 0.123023 0.156821 0.155469 0.099837 0.072008 0.075400 0.115447 33
0.053591 0.073462 0.076115 0.121187 0.152765 0.153505 0.095245 0.074380 0.081828 0.117922 33
0.054867 0.074661 0.075860 0.117539 0.153581 0.152510 0.097822 0.073972 0.079686 0.119503 33
0.051678 0.072569 0.073998 0.126339 0.158836 0.157407 0.100806 0.072442 0.073232 0.112693 33
0.052189 0.074839 0.073130 0.119197 0.157765 0.153709 0.094914 0.072314 0.086394 0.115549 33
0.055479 0.073130 0.075605 0.118610 0.152918 0.157101 0.097133 0.074635 0.076701 0.118687 33
0.054357 0.072824 0.072646 0.118942 0.154398 0.152612 0.091929 0.074559 0.087976 0.119758 33
0.063539 0.090297 0.054000 0.101112 0.102872 0.116366 0.084940 0.086522 0.116442 0.183910 34
0.065733 0.094812 0.060453 0.104428 0.106596 0.119478 0.085170 0.086624 0.103918 0.172788 34
0.051882 0.077160 0.077671 0.128584 0.150010 0.146541 0.093740 0.073079 0.074482 0.126849 34
0.063157 0.086802 0.071166 0.119274 0.123763 0.128482 0.086802 0.082594 0.086139 0.151821 34
0.056244 0.081548 0.068003 0.124860 0.138149 0.138634 0.093128 0.078385 0.081726 0.139323 34
0.059382 0.087542 0.070069 0.119018 0.130267 0.131798 0.090807 0.081752 0.084991 0.144373 34
0.065401 0.086012 0.072569 0.118865 0.124018 0.126441 0.091751 0.081522 0.087236 0.146184 34
0.063897 0.092184 0.059968 0.108280 0.113203 0.118508 0.083129 0.085195 0.104505 0.171130 34
0.057800 0.081624 0.070962 0.127308 0.143174 0.135930 0.092287 0.078538 0.078334 0.134042 34
0.059484 0.086267 0.063004 0.116085 0.124350 0.130089 0.089965 0.081140 0.091521 0.158096 34
0.051066 0.072238 0.046169 0.111672 0.137180 0.140037 0.080553 0.085501 0.126926 0.148658 35
0.057979 0.083843 0.041424 0.097771 0.100704 0.122436 0.083206 0.094302 0.144220 0.174115 35
0.051627 0.077441 0.039996 0.106443 0.121263 0.138022 0.078563 0.091317 0.140496 0.154831 35
0.052138 0.073998 0.043669 0.107591 0.133991 0.138685 0.080630 0.086955 0.131543 0.150801 35
0.051525 0.075885 0.043797 0.109530 0.133532 0.141746 0.080476 0.088843 0.127946 0.146720 35
0.049536 0.077696 0.039843 0.103433 0.126237 0.138940 0.078691 0.089659 0.142128 0.153836 35
0.052495 0.080196 0.039766 0.101112 0.115830 0.133048 0.079737 0.089532 0.145750 0.162534 35
0.046449 0.074482 0.045633 0.113407 0.138098 0.149117 0.082364 0.086955 0.124222 0.139272 35
0.051984 0.079813 0.044638 0.107872 0.119733 0.136389 0.081548 0.088562 0.131976 0.157484 35
0.050301 0.072977 0.041220 0.108382 0.132742 0.139603 0.079176 0.086114 0.135369 0.154117 35
0.054867 0.079303 0.052138 0.110728 0.131492 0.132512 0.083614 0.087925 0.117820 0.149602 36
0.046475 0.073998 0.046934 0.114912 0.153097 0.148123 0.083027 0.080987 0.117182 0.135267 36
0.046577 0.073003 0.045608 0.114351 0.141006 0.139986 0.074763 0.084226 0.123788 0.156693 36
0.049689 0.073462 0.049893 0.114937 0.149857 0.140011 0.079354 0.082492 0.123508 0.136797 36
0.051806 0.080400 0.045353 0.106316 0.119503 0.130726 0.080094 0.089328 0.133328 0.163147 36
0.055300 0.081446 0.049153 0.109122 0.131849 0.128482 0.084124 0.085374 0.123584 0.151566 36
0.056244 0.077543 0.049153 0.109785 0.137154 0.131747 0.081803 0.085604 0.119018 0.151949 36
0.054535 0.084532 0.045378 0.105142 0.113687 0.125217 0.083410 0.089379 0.135292 0.163427 36
0.052138 0.075477 0.043567 0.109912 0.137078 0.132435 0.077977 0.085604 0.129834 0.155979 36
0.056066 0.081701 0.050148 0.106749 0.118279 0.128456 0.082415 0.090629 0.129400 0.156158 36
0.060070 0.075145 0.060581 0.100908 0.107974 0.136925 0.094200 0.086853 0.149373 0.127972 37
0.058744 0.075554 0.061575 0.098536 0.106826 0.140904 0.096572 0.084762 0.150724 0.125803 37
0.059076 0.073998 0.055020 0.101342 0.105372 0.140088 0.092873 0.086726 0.159729 0.125778 37
0.059892 0.076854 0.061932 0.097924 0.109504 0.133201 0.094404 0.085782 0.149500 0.131007 37
0.057520 0.076319 0.058846 0.100704 0.104811 0.138302 0.093664 0.088256 0.154244 0.127334 37
0.058514 0.075349 0.065197 0.099199 0.108025 0.136313 0.093332 0.083104 0.151439 0.129528 37
0.061065 0.077390 0.062162 0.095883 0.108484 0.134961 0.097260 0.085272 0.150571 0.126951 37
0.060581 0.076166 0.061754 0.096725 0.109351 0.135292 0.095526 0.087517 0.151668 0.125421 37
0.058157 0.074661 0.062162 0.101571 0.105372 0.135012 0.093536 0.084889 0.157841 0.126798 37
0.059662 0.073947 0.060708 0.102158 0.105729 0.134706 0.092465 0.088282 0.154193 0.128150 37
0.051882 0.073360 0.049383 0.103790 0.113662 0.145393 0.088001 0.086879 0.158734 0.128915 38
0.051449 0.078921 0.055938 0.100270 0.119172 0.138175 0.084099 0.082339 0.162611 0.127028 38
0.049357 0.074380 0.046577 0.100372 0.105219 0.143072 0.083180 0.090705 0.169753 0.137384 38
0.050786 0.073972 0.054280 0.100347 0.118202 0.143710 0.078181 0.081650 0.172865 0.126008 38
0.051194 0.073717 0.049536 0.099888 0.110473 0.148811 0.085195 0.086063 0.167100 0.128023 38
0.051474 0.075400 0.052954 0.098561 0.117156 0.148556 0.082134 0.082747 0.167993 0.123023 38
0.053362 0.077186 0.054918 0.100959 0.125064 0.140521 0.084838 0.080043 0.161999 0.121110 38
0.052775 0.076625 0.050148 0.100423 0.112284 0.143506 0.081854 0.084711 0.169268 0.128405 38
0.049561 0.071957 0.049714 0.103612 0.108815 0.144832 0.079099 0.084328 0.181436 0.126645 38
0.052061 0.073054 0.047495 0.103102 0.109938 0.147944 0.081803 0.085399 0.173248 0.125957 38
0.057392 0.087338 0.021375 0.063386 0.103076 0.146312 0.058667 0.080808 0.191077 0.190567 39
0.058591 0.079303 0.024844 0.059662 0.111417 0.139297 0.058438 0.092491 0.181155 0.194802 39
0.053668 0.077722 0.022498 0.060376 0.110499 0.162305 0.054867 0.088690 0.222273 0.147102 39
0.054306 0.079303 0.023467 0.061524 0.115524 0.147459 0.060963 0.077084 0.241480 0.138889 39
0.056499 0.083104 0.021937 0.060785 0.106239 0.147434 0.055683 0.088180 0.185925 0.194215 39
0.064764 0.086981 0.035022 0.061881 0.128966 0.124681 0.065912 0.084991 0.182252 0.164550 39
0.056907 0.087976 0.026196 0.063897 0.112463 0.134833 0.058438 0.076982 0.211943 0.170365 39
0.060938 0.084303 0.026349 0.058361 0.115549 0.140088 0.058463 0.085119 0.185211 0.185619 39
0.056244 0.081089 0.025278 0.060147 0.109249 0.142562 0.056397 0.084022 0.222477 0.162534 39
0.058208 0.087695 0.021835 0.063029 0.104887 0.144322 0.057163 0.078334 0.194164 0.190363 39
0.051041 0.085884 0.058030 0.136976 0.143072 0.125676 0.079227 0.083002 0.091980 0.145113 40
0.052061 0.080987 0.065784 0.145776 0.155698 0.110958 0.073309 0.087491 0.088078 0.139858 40
0.054994 0.088001 0.054994 0.128227 0.129170 0.114453 0.075069 0.090731 0.108356 0.156004 40
0.054255 0.091215 0.061575 0.134068 0.133762 0.109861 0.070171 0.092184 0.097133 0.155775 40
0.055198 0.087415 0.055505 0.123049 0.146363 0.118432 0.068309 0.092924 0.101546 0.151260 40
0.054841 0.091776 0.054408 0.123661 0.148021 0.116468 0.066396 0.095628 0.097363 0.151439 40
0.060249 0.093715 0.054178 0.120421 0.151388 0.114988 0.063795 0.098051 0.095322 0.147893 40
0.049485 0.081599 0.062468 0.143710 0.157229 0.117998 0.078385 0.084379 0.085680 0.139067 40
0.055505 0.087644 0.055530 0.131925 0.143021 0.109300 0.073334 0.091343 0.100041 0.152357 40
0.051525 0.087108 0.058642 0.135216 0.141338 0.124809 0.077645 0.084762 0.093536 0.145419 40
0.049357 0.069177 0.060632 0.164932 0.182915 0.122768 0.071676 0.079074 0.078487 0.120983 41
0.047368 0.074508 0.054561 0.152153 0.191690 0.127002 0.070733 0.082160 0.078921 0.120906 41
0.041322 0.066651 0.056831 0.184165 0.177839 0.127589 0.061575 0.078155 0.085348 0.120523 41
0.059917 0.079864 0.063590 0.144475 0.158122 0.110116 0.071957 0.090067 0.089175 0.132716 41
0.051755 0.079456 0.057851 0.137792 0.170136 0.121850 0.068896 0.083690 0.093001 0.135573 41
0.056882 0.083129 0.057953 0.134349 0.173911 0.115396 0.069151 0.089430 0.090450 0.129349 41
0.056499 0.081854 0.059994 0.136211 0.170314 0.109657 0.067238 0.089506 0.096546 0.132180 41
0.050301 0.076548 0.058234 0.152306 0.176819 0.120778 0.070273 0.081369 0.083818 0.129553 41
0.050250 0.069891 0.063004 0.155826 0.179701 0.124630 0.067519 0.080068 0.089124 0.119988 41
0.052342 0.075375 0.060019 0.156795 0.168758 0.118355 0.074559 0.080476 0.084991 0.128329 41
0.065146 0.086267 0.054688 0.106571 0.166922 0.129017 0.069814 0.089251 0.094047 0.138277 42
0.056193 0.074839 0.054433 0.115192 0.177660 0.144526 0.079635 0.079227 0.088919 0.129375 42
0.068488 0.084405 0.054561 0.105984 0.167024 0.131619 0.065708 0.087210 0.094888 0.140113 42
0.057418 0.075860 0.053745 0.111417 0.182507 0.146337 0.075605 0.080349 0.087746 0.129017 42
0.069355 0.086343 0.056754 0.105550 0.157382 0.128354 0.068768 0.086904 0.098332 0.142256 42
0.066447 0.084456 0.054357 0.106647 0.163886 0.133762 0.073283 0.085119 0.094429 0.137614 42
0.057392 0.078257 0.054765 0.110907 0.180135 0.142358 0.078691 0.080783 0.088971 0.127742 42
0.061218 0.082747 0.056550 0.111672 0.169702 0.136593 0.074227 0.083665 0.090960 0.132665 42
0.070273 0.084813 0.053974 0.105321 0.157560 0.124681 0.076319 0.085272 0.098612 0.143174 42
0.066473 0.087644 0.053821 0.105321 0.165646 0.127819 0.069024 0.089455 0.095092 0.139705 42
0.056117 0.136287 0.048413 0.087134 0.137154 0.098357 0.063820 0.119299 0.119018 0.134400 43
0.060045 0.082594 0.064738 0.117258 0.148250 0.124477 0.084864 0.087772 0.086624 0.143378 43
0.054841 0.140164 0.040506 0.082390 0.173069 0.101214 0.051831 0.130497 0.092924 0.132563 43
0.052495 0.080145 0.047852 0.113126 0.153428 0.144271 0.075273 0.087823 0.093587 0.152000 43
0.056576 0.137486 0.044230 0.085272 0.160545 0.097592 0.057239 0.124171 0.102107 0.134782 43
0.052750 0.118177 0.046526 0.097158 0.191690 0.112463 0.053158 0.113432 0.086598 0.128048 43
0.056448 0.086012 0.061805 0.116060 0.155698 0.136287 0.079227 0.088945 0.080961 0.138557 43
0.047776 0.126798 0.041144 0.099301 0.201510 0.110116 0.044358 0.119095 0.088690 0.121212 43
0.055479 0.114708 0.042394 0.099429 0.184650 0.116085 0.052495 0.110626 0.087491 0.136644 43
0.054943 0.141746 0.043108 0.084838 0.156311 0.095654 0.055428 0.126084 0.107795 0.134093 43
0.062264 0.075987 0.052112 0.098969 0.107489 0.135828 0.081905 0.089302 0.144450 0.151694 44
0.061575 0.079099 0.052699 0.096113 0.106188 0.133889 0.082594 0.088103 0.154678 0.145062 44
0.074049 0.085552 0.061932 0.091113 0.106928 0.113585 0.089659 0.095858 0.123916 0.157407 44
0.069126 0.088817 0.053209 0.091368 0.091241 0.109759 0.083997 0.090450 0.155418 0.166616 44
0.074329 0.094429 0.047852 0.077747 0.071906 0.106979 0.081650 0.095960 0.171284 0.177865 44
0.061550 0.078921 0.059841 0.103535 0.110805 0.122819 0.090858 0.091419 0.139093 0.141159 44
0.057545 0.080527 0.035966 0.090909 0.070044 0.124834 0.070758 0.093638 0.217605 0.158173 44
0.053056 0.085501 0.031425 0.080681 0.076778 0.120268 0.070095 0.107132 0.192557 0.182507 44
0.063310 0.089710 0.038236 0.082823 0.067136 0.112948 0.072748 0.091623 0.200158 0.181308 44
0.063463 0.080732 0.046755 0.092312 0.083282 0.123890 0.074941 0.094251 0.175263 0.165111 44
0.037547 0.076217 0.045684 0.148301 0.151184 0.146796 0.059101 0.095679 0.095220 0.144271 45
0.040685 0.082543 0.048643 0.141185 0.136287 0.136389 0.063157 0.095679 0.100143 0.155290 45
0.045837 0.083639 0.050786 0.144654 0.164805 0.117692 0.051041 0.096699 0.094710 0.150138 45
0.044409 0.082134 0.042037 0.142536 0.133175 0.132997 0.053821 0.101291 0.109198 0.158402 45
0.043057 0.081650 0.047393 0.145852 0.140827 0.134017 0.055071 0.099301 0.098842 0.153989 45
0.045939 0.082262 0.049255 0.147919 0.143990 0.126671 0.052342 0.097541 0.099123 0.154959 45
0.043031 0.078487 0.043797 0.148276 0.142996 0.131594 0.049102 0.101342 0.108815 0.152561 45
0.040430 0.081777 0.053362 0.148939 0.151209 0.132002 0.062927 0.095909 0.087466 0.145980 45
0.043337 0.083206 0.042292 0.142919 0.133864 0.127538 0.052852 0.097898 0.111851 0.164243 45
0.040557 0.078283 0.046449 0.148760 0.146006 0.137920 0.058565 0.096419 0.097796 0.149245 45
0.071855 0.097516 0.039511 0.068768 0.082007 0.131517 0.086241 0.089863 0.173579 0.159142 46
0.070426 0.096317 0.038746 0.073207 0.084991 0.124936 0.082900 0.091088 0.178553 0.158836 46
0.075120 0.092797 0.039766 0.069993 0.095143 0.133889 0.087159 0.090220 0.161718 0.154193 46
0.067493 0.090373 0.043465 0.078181 0.100168 0.131747 0.082058 0.091725 0.164090 0.150699 46
0.068003 0.099097 0.044791 0.072187 0.097822 0.127742 0.082696 0.096878 0.145750 0.165034 46
0.063412 0.095934 0.036654 0.075222 0.082313 0.124987 0.076548 0.098816 0.165748 0.180364 46
0.066932 0.093205 0.039613 0.072493 0.089455 0.128354 0.080170 0.102490 0.158224 0.169064 46
0.064662 0.096062 0.039919 0.078436 0.091802 0.125370 0.082415 0.094429 0.158810 0.168095 46
0.069406 0.089251 0.036552 0.070197 0.085578 0.134349 0.086088 0.089379 0.183017 0.156183 46
0.067774 0.092669 0.044154 0.076778 0.092618 0.133609 0.083895 0.091521 0.153403 0.163580 46
0.073130 0.092414 0.048005 0.079048 0.102183 0.134298 0.076370 0.083716 0.159831 0.151005 47
0.062978 0.083104 0.049230 0.077951 0.110703 0.158632 0.081854 0.080783 0.163759 0.131007 47
0.070018 0.092159 0.050760 0.083104 0.106800 0.141899 0.077084 0.081216 0.150954 0.146006 47
0.070529 0.096495 0.054714 0.092031 0.106494 0.124936 0.081165 0.085680 0.131390 0.156566 47
0.060376 0.082772 0.049969 0.077007 0.112055 0.175645 0.078895 0.077900 0.160009 0.125370 47
0.056372 0.082262 0.049867 0.083537 0.121799 0.160009 0.079227 0.084099 0.151541 0.131288 47
0.059101 0.081216 0.051984 0.084532 0.120625 0.159780 0.080681 0.086088 0.144475 0.131517 47
0.067162 0.087772 0.047495 0.083206 0.114402 0.131186 0.076523 0.091394 0.150877 0.149985 47
0.054459 0.074329 0.055045 0.070733 0.120727 0.194802 0.081752 0.069993 0.167738 0.110422 47
0.070044 0.090731 0.046245 0.081471 0.109453 0.138965 0.075375 0.083920 0.155163 0.148633 47
0.086292 0.094455 0.045199 0.057647 0.086343 0.152612 0.080425 0.082594 0.146949 0.167483 48
0.093230 0.102617 0.048388 0.058718 0.077492 0.125931 0.075018 0.087159 0.144756 0.186690 48
0.070988 0.099301 0.045327 0.077696 0.091802 0.117029 0.069228 0.094251 0.146490 0.187889 48
0.066422 0.096521 0.040812 0.080017 0.098740 0.140802 0.079635 0.093842 0.138583 0.164626 48
0.077160 0.100092 0.044103 0.070324 0.090144 0.139986 0.075605 0.086981 0.149219 0.166386 48
0.058438 0.113381 0.043210 0.080910 0.109861 0.131543 0.064305 0.105321 0.122845 0.170187 48
0.070018 0.092389 0.038950 0.070988 0.098816 0.147204 0.079966 0.087950 0.149270 0.164448 48
0.077620 0.095373 0.045684 0.068207 0.092797 0.145495 0.079278 0.084226 0.145954 0.165366 48
0.064738 0.101979 0.045914 0.083895 0.099021 0.127410 0.075400 0.092797 0.137511 0.171335 48
0.075477 0.091853 0.042266 0.068743 0.097005 0.158785 0.081165 0.081854 0.141491 0.161361 48
0.044740 0.078385 0.011963 0.095628 0.162126 0.125038 0.045429 0.084838 0.179165 0.172686 49
0.041986 0.069075 0.009514 0.100372 0.166794 0.153071 0.037904 0.080527 0.216815 0.123941 49
0.043873 0.069177 0.008749 0.102796 0.132206 0.146388 0.038134 0.083384 0.244541 0.130752 49
0.047062 0.081803 0.011555 0.094863 0.123865 0.112386 0.050275 0.087542 0.188425 0.202224 49
0.045250 0.079252 0.011810 0.097796 0.155469 0.124783 0.046296 0.084073 0.179216 0.176053 49
0.041679 0.077671 0.012703 0.093868 0.178196 0.130395 0.042700 0.084991 0.177992 0.159805 49
0.040506 0.075196 0.012014 0.093103 0.195975 0.138353 0.040047 0.082415 0.181691 0.140700 49
0.040914 0.072620 0.011453 0.093664 0.192914 0.146847 0.039256 0.081930 0.191128 0.129273 49
0.040761 0.069840 0.009999 0.094965 0.186205 0.153173 0.038389 0.080502 0.203398 0.122768 49
0.042598 0.068564 0.009234 0.102566 0.157867 0.152842 0.038134 0.081854 0.220921 0.125421 49
0.044664 0.092618 0.007780 0.066906 0.112820 0.113279 0.045353 0.096266 0.225615 0.194700 50
0.043592 0.088562 0.008290 0.076319 0.138226 0.111978 0.045225 0.092873 0.214289 0.180645 50
0.042113 0.086114 0.008213 0.082466 0.147434 0.114810 0.044766 0.093587 0.207402 0.173095 50
0.042496 0.084303 0.009565 0.094200 0.161157 0.116774 0.044026 0.092695 0.197174 0.157611 50
0.044052 0.080757 0.009361 0.103153 0.147970 0.116570 0.044893 0.095679 0.199291 0.158275 50
0.041807 0.084762 0.009310 0.092108 0.158989 0.116799 0.044383 0.092363 0.199189 0.160290 50
0.044052 0.080757 0.009361 0.103153 0.147970 0.116570 0.044893 0.095679 0.199291 0.158275 50
0.043312 0.082619 0.009565 0.098944 0.158504 0.117590 0.044536 0.092567 0.195975 0.156387 50
0.043720 0.079915 0.009081 0.101903 0.138328 0.113942 0.043924 0.095092 0.205923 0.168172 50
0.043644 0.091445 0.008188 0.069585 0.126645 0.113050 0.045225 0.093256 0.219978 0.188986 50
0.046347 0.074431 0.020100 0.099505 0.123431 0.117437 0.056015 0.097158 0.172559 0.193016 51
0.052393 0.078614 0.023365 0.092950 0.124732 0.098510 0.053591 0.100474 0.185721 0.189649 51
0.060912 0.092644 0.018799 0.067238 0.068666 0.081573 0.064381 0.111315 0.217733 0.216738 51
0.050199 0.083435 0.018493 0.091113 0.105321 0.095500 0.061065 0.099123 0.187634 0.208117 51
0.045557 0.071319 0.027905 0.110167 0.183145 0.131186 0.055326 0.088843 0.133099 0.153454 51
0.058591 0.084583 0.022319 0.082798 0.109708 0.100296 0.062902 0.100832 0.180951 0.197021 51
0.063310 0.091394 0.020814 0.075196 0.083997 0.076217 0.061932 0.111213 0.199214 0.216713 51
0.053311 0.083129 0.016146 0.069763 0.093562 0.094174 0.059433 0.104734 0.215412 0.210336 51
0.056984 0.087185 0.019972 0.070426 0.106571 0.090271 0.058489 0.104224 0.202122 0.203755 51
0.053260 0.079864 0.024819 0.102796 0.125906 0.119631 0.063539 0.093791 0.155571 0.180823 51
0.050556 0.071574 0.047725 0.119911 0.150622 0.148888 0.080681 0.079864 0.100908 0.149270 52
0.053898 0.067366 0.041934 0.122105 0.159780 0.139323 0.075605 0.080221 0.100908 0.158861 52
0.044995 0.062162 0.041271 0.127283 0.181997 0.164294 0.079482 0.070248 0.092593 0.135675 52
0.054025 0.068335 0.040838 0.120753 0.158122 0.138914 0.076140 0.076446 0.105040 0.161387 52
0.050760 0.067213 0.050888 0.121136 0.163172 0.149296 0.084966 0.072977 0.099837 0.139756 52
0.050403 0.066753 0.046322 0.121748 0.161744 0.157152 0.085450 0.074176 0.098740 0.137511 52
0.049357 0.065886 0.042598 0.123712 0.167304 0.146567 0.080910 0.075502 0.098918 0.149245 52
0.054153 0.069330 0.044485 0.121059 0.161361 0.152306 0.082109 0.077288 0.100041 0.137869 52
0.047954 0.064254 0.040379 0.124911 0.179854 0.159984 0.077263 0.071549 0.100525 0.133328 52
0.049689 0.067289 0.048031 0.127053 0.156872 0.154551 0.083946 0.076982 0.096597 0.138991 52
0.058897 0.085348 0.033262 0.108076 0.082288 0.134195 0.067315 0.095067 0.163580 0.171972 53
0.058591 0.088052 0.028109 0.105040 0.081803 0.132614 0.063437 0.095602 0.166896 0.179854 53
0.071829 0.084583 0.039358 0.101444 0.089965 0.123916 0.067519 0.090935 0.155137 0.175314 53
0.067238 0.089506 0.036552 0.103280 0.089863 0.120039 0.067289 0.094531 0.152178 0.179522 53
0.064687 0.087746 0.036552 0.109045 0.088333 0.129528 0.070656 0.092210 0.144399 0.176844 53
0.061601 0.089404 0.033134 0.107540 0.090220 0.129451 0.070171 0.090399 0.147919 0.180160 53
0.065631 0.089455 0.032191 0.106520 0.089863 0.125344 0.067901 0.094200 0.149628 0.179267 53
0.062647 0.085399 0.032012 0.104811 0.083053 0.137665 0.067952 0.094506 0.158555 0.173401 53
0.069304 0.088971 0.038440 0.105474 0.095220 0.120932 0.071396 0.089073 0.146108 0.175084 53
0.063284 0.089710 0.036195 0.104887 0.086216 0.129936 0.070120 0.095067 0.144909 0.179676 53
0.073207 0.092440 0.040047 0.074610 0.060070 0.097694 0.075834 0.105244 0.185746 0.195108 54
0.070273 0.096036 0.037598 0.079431 0.065095 0.104556 0.071676 0.098638 0.193042 0.183655 54
0.062468 0.088945 0.039103 0.083690 0.065912 0.111647 0.075043 0.100653 0.188068 0.184471 54
0.064866 0.091598 0.036221 0.083818 0.065248 0.107106 0.074406 0.099990 0.188042 0.188705 54
0.067901 0.094098 0.037624 0.079507 0.063208 0.108560 0.072391 0.102260 0.187532 0.186920 54
0.067264 0.093001 0.036807 0.086037 0.068182 0.110065 0.075120 0.101673 0.184241 0.177609 54
0.061779 0.087210 0.039129 0.090399 0.079941 0.117590 0.075783 0.097643 0.167483 0.183043 54
0.070069 0.092031 0.038312 0.083767 0.064662 0.108101 0.073028 0.096827 0.182048 0.191154 54
0.062927 0.088256 0.036297 0.083308 0.071447 0.116468 0.076344 0.100194 0.184726 0.180033 54
0.071549 0.091623 0.041654 0.078359 0.063004 0.101877 0.079507 0.101852 0.181436 0.189139 54
0.023493 0.052061 0.007907 0.098102 0.200541 0.318284 0.010841 0.067136 0.093715 0.127921 55
0.034486 0.056780 0.011121 0.106902 0.195261 0.314228 0.011223 0.068360 0.096954 0.104683 55
0.025610 0.054535 0.009004 0.103663 0.211126 0.313233 0.008800 0.058846 0.095041 0.120141 55
0.031757 0.056346 0.011836 0.117463 0.206178 0.305224 0.007627 0.055913 0.093026 0.114631 55
0.025737 0.055658 0.009846 0.106392 0.206127 0.310555 0.009973 0.060479 0.093485 0.121748 55
0.032293 0.060479 0.009744 0.107566 0.207810 0.310708 0.006938 0.054714 0.095858 0.113891 55
0.032548 0.056397 0.010994 0.109122 0.212249 0.309331 0.008826 0.058336 0.093536 0.108662 55
0.033415 0.058795 0.010203 0.102770 0.201102 0.306703 0.007882 0.064713 0.095169 0.119248 55
0.031655 0.058770 0.009871 0.104581 0.211994 0.309203 0.008264 0.055683 0.096495 0.113483 55
0.027344 0.054918 0.011606 0.102260 0.199214 0.310989 0.009897 0.064024 0.097541 0.122207 55
0.042623 0.073589 0.068029 0.144220 0.188705 0.159448 0.087006 0.069304 0.061575 0.105499 56
0.047087 0.079711 0.072416 0.137358 0.172380 0.149475 0.086573 0.075222 0.065733 0.114044 56
0.063437 0.089047 0.072595 0.116213 0.136466 0.126161 0.087976 0.086088 0.083257 0.138761 56
0.063769 0.088486 0.072569 0.115422 0.139297 0.128915 0.087006 0.086445 0.081522 0.136568 56
0.049536 0.078589 0.069534 0.132129 0.173860 0.152535 0.089532 0.074253 0.066269 0.113764 56
0.048924 0.080859 0.073589 0.133915 0.169728 0.147536 0.087159 0.075732 0.068054 0.114504 56
0.053591 0.083997 0.068182 0.130395 0.159397 0.141695 0.088894 0.077058 0.069865 0.126926 56
0.044842 0.077416 0.070324 0.139297 0.180849 0.155112 0.087032 0.072340 0.062111 0.110677 56
0.058412 0.085297 0.070375 0.125166 0.149602 0.133277 0.087772 0.081777 0.079227 0.129094 56
0.044485 0.074380 0.067876 0.142970 0.185670 0.158224 0.086573 0.070478 0.061881 0.107464 56
0.059943 0.099352 0.053898 0.103076 0.107336 0.123559 0.073768 0.101163 0.123100 0.154806 57
0.056372 0.092235 0.062876 0.117667 0.128354 0.117105 0.070835 0.103306 0.108611 0.142639 57
0.060172 0.103229 0.057443 0.099225 0.121008 0.121722 0.079533 0.100704 0.107055 0.149908 57
0.057749 0.099454 0.060019 0.108994 0.124987 0.122462 0.077543 0.103204 0.098714 0.146873 57
0.059611 0.101087 0.057290 0.104020 0.133507 0.123278 0.078206 0.099021 0.097056 0.146924 57
0.059331 0.100449 0.058872 0.107719 0.119299 0.122054 0.073079 0.102898 0.106877 0.149424 57
0.058744 0.101061 0.058616 0.107234 0.120370 0.120906 0.072110 0.103357 0.106367 0.151235 57
0.057188 0.093154 0.057545 0.115039 0.111468 0.119758 0.068973 0.101520 0.125191 0.150163 57
0.060045 0.104505 0.057061 0.099429 0.119018 0.116621 0.080425 0.100066 0.112259 0.150571 57
0.060938 0.096546 0.060351 0.105933 0.117616 0.122411 0.074712 0.103535 0.108127 0.149832 57
0.041858 0.105755 0.022727 0.082568 0.133507 0.157331 0.065478 0.085093 0.147357 0.158326 58
0.045148 0.102949 0.025125 0.084252 0.134782 0.168911 0.064815 0.077977 0.154066 0.141975 58
0.044383 0.095245 0.031476 0.090935 0.143812 0.162458 0.071498 0.084864 0.126314 0.149015 58
0.040557 0.096317 0.034282 0.096342 0.143582 0.171539 0.074610 0.076701 0.127104 0.138965 58
0.041373 0.102796 0.030839 0.084328 0.132793 0.163427 0.073232 0.080834 0.127359 0.163019 58
0.041986 0.102056 0.027829 0.083053 0.122181 0.156183 0.070478 0.084124 0.147077 0.165034 58
0.045786 0.099607 0.032675 0.092644 0.123839 0.168095 0.077569 0.081420 0.127283 0.151082 58
0.043159 0.104836 0.022574 0.080936 0.128354 0.158734 0.063361 0.082619 0.155928 0.159499 58
0.044052 0.100398 0.032420 0.091419 0.134195 0.167840 0.073130 0.080885 0.130726 0.144934 58
0.043082 0.106494 0.026681 0.086267 0.125038 0.160494 0.070146 0.079023 0.147204 0.155571 58
0.044664 0.079839 0.052852 0.104479 0.173120 0.168070 0.083002 0.070478 0.112055 0.111443 59
0.040532 0.074176 0.052342 0.109045 0.181232 0.177762 0.086445 0.066039 0.104785 0.107642 59
0.043388 0.077722 0.051627 0.100551 0.186512 0.180696 0.082976 0.067544 0.107821 0.101163 59
0.040302 0.079074 0.052036 0.099964 0.200770 0.188884 0.082670 0.062111 0.095705 0.098485 59
0.044434 0.077543 0.052087 0.103408 0.185619 0.181385 0.084150 0.066320 0.098434 0.106622 59
0.041526 0.077186 0.053107 0.104352 0.188348 0.181129 0.084379 0.065937 0.103229 0.100806 59
0.039766 0.075247 0.054637 0.106622 0.196077 0.189521 0.084175 0.063361 0.095628 0.094965 59
0.044154 0.076497 0.054637 0.105550 0.171182 0.168274 0.085170 0.072289 0.109122 0.113126 59
0.040302 0.077977 0.053132 0.102617 0.188068 0.183986 0.085884 0.066141 0.104964 0.096929 59
0.044103 0.079176 0.054204 0.104811 0.177992 0.171666 0.084813 0.068233 0.108025 0.106979 59
0.026043 0.060479 0.038542 0.126875 0.279359 0.242807 0.067672 0.038389 0.049765 0.070069 60
0.023059 0.062876 0.038108 0.128737 0.288108 0.228446 0.067289 0.041093 0.054510 0.067774 60
0.023748 0.056397 0.035685 0.127844 0.293541 0.250128 0.062851 0.036501 0.043797 0.069508 60
0.020049 0.057137 0.034104 0.129987 0.293210 0.246990 0.065784 0.033951 0.050020 0.068768 60
0.024538 0.058387 0.037037 0.126161 0.285379 0.250867 0.067417 0.035532 0.045148 0.069534 60
0.025559 0.058030 0.034971 0.133175 0.302367 0.229390 0.061805 0.042190 0.045939 0.066575 60
0.022855 0.057979 0.036680 0.128252 0.297801 0.239083 0.066422 0.037241 0.046628 0.067059 60
0.024334 0.060989 0.037700 0.133048 0.286884 0.230206 0.068437 0.041093 0.051092 0.066218 60
0.022829 0.057494 0.034206 0.126849 0.303540 0.242807 0.063055 0.036680 0.046092 0.066447 60
0.024819 0.058642 0.037751 0.129324 0.286986 0.244490 0.065988 0.036833 0.047954 0.067213 60
0.044868 0.070631 0.055581 0.113534 0.189904 0.180594 0.085782 0.063769 0.078385 0.116952 61
0.038848 0.063437 0.052979 0.123151 0.214111 0.187455 0.082415 0.060708 0.070682 0.106214 61
0.038797 0.068896 0.060070 0.119886 0.195439 0.185976 0.086624 0.062494 0.077416 0.104403 61
0.040787 0.067059 0.051219 0.125676 0.187379 0.178885 0.085884 0.065886 0.080272 0.116952 61
0.043592 0.071345 0.061193 0.115524 0.189062 0.185670 0.085986 0.063616 0.076880 0.107132 61
0.042802 0.070758 0.056168 0.113560 0.194597 0.187226 0.083257 0.062392 0.078844 0.110397 61
0.035711 0.064458 0.051908 0.125319 0.210106 0.191792 0.080527 0.061269 0.074355 0.104556 61
0.038950 0.068003 0.057571 0.114963 0.200566 0.191128 0.081905 0.063743 0.077007 0.106163 61
0.039027 0.067366 0.057494 0.119376 0.206994 0.191817 0.083206 0.060121 0.072442 0.102158 61
0.042088 0.072416 0.056321 0.112106 0.193093 0.182992 0.083895 0.064254 0.077007 0.115830 61
0.046475 0.096113 0.054382 0.111647 0.179242 0.142256 0.084532 0.097924 0.068207 0.119223 62
0.043746 0.101826 0.050531 0.108739 0.195796 0.137741 0.081089 0.098102 0.066116 0.116315 62
0.043746 0.093996 0.056831 0.117514 0.180364 0.146414 0.086573 0.098689 0.063463 0.112412 62
0.045199 0.092389 0.056040 0.114504 0.189904 0.147689 0.085399 0.095730 0.061907 0.111239 62
0.049255 0.096062 0.054204 0.112310 0.171819 0.145240 0.083537 0.097822 0.069687 0.120064 62
0.049026 0.100296 0.054204 0.108127 0.176104 0.142332 0.085476 0.102030 0.068335 0.114070 62
0.045250 0.102388 0.052061 0.110218 0.182532 0.140904 0.083155 0.101393 0.066932 0.115167 62
0.046220 0.107413 0.051678 0.103994 0.180772 0.141108 0.083690 0.103637 0.066830 0.114657 62
0.044689 0.098765 0.056091 0.112438 0.179369 0.148199 0.087517 0.097005 0.065274 0.110652 62
0.049638 0.098867 0.052979 0.108688 0.175492 0.142358 0.083155 0.100423 0.069738 0.118661 62
0.040608 0.091674 0.034792 0.102898 0.208933 0.157331 0.065121 0.081828 0.089965 0.126849 63
0.040634 0.092082 0.034665 0.103637 0.211279 0.158020 0.065580 0.083461 0.089073 0.121569 63
0.041450 0.089481 0.036705 0.105601 0.200413 0.156668 0.067034 0.084889 0.090629 0.127130 63
0.038567 0.090909 0.035787 0.104301 0.215641 0.159474 0.069406 0.080655 0.088358 0.116901 63
0.041960 0.089659 0.038083 0.105244 0.206969 0.158632 0.066371 0.082925 0.087670 0.122488 63
0.042164 0.092159 0.036119 0.106826 0.201714 0.158912 0.065019 0.083257 0.089863 0.123967 63
0.038414 0.090475 0.038440 0.103739 0.210795 0.161718 0.065963 0.083537 0.089430 0.117488 63
0.041705 0.091827 0.035889 0.103408 0.197735 0.159014 0.066192 0.082237 0.091674 0.130318 63
0.041501 0.096725 0.035736 0.100296 0.200184 0.149704 0.064356 0.086292 0.095832 0.129375 63
0.041883 0.088409 0.036348 0.104428 0.203755 0.157127 0.066090 0.084456 0.089889 0.127615 63
0.044307 0.069330 0.081089 0.140394 0.179191 0.143327 0.086216 0.074584 0.080221 0.101342 64
0.043924 0.070835 0.082109 0.144424 0.169421 0.143251 0.089149 0.072314 0.079864 0.104709 64
0.045888 0.069712 0.078844 0.146057 0.170722 0.142460 0.087057 0.072773 0.082058 0.104428 64
0.044842 0.072084 0.082109 0.144832 0.167712 0.142792 0.089149 0.073666 0.080119 0.102694 64
0.045735 0.070171 0.079380 0.140827 0.172457 0.139960 0.091725 0.072135 0.081267 0.106341 64
0.045735 0.069993 0.080068 0.141873 0.167279 0.144577 0.088460 0.073896 0.082568 0.105550 64
0.042521 0.071217 0.080451 0.142587 0.175186 0.144679 0.087593 0.070631 0.080936 0.104199 64
0.045072 0.070452 0.081165 0.138379 0.173095 0.144781 0.090195 0.072084 0.081063 0.103714 64
0.045174 0.071192 0.079507 0.144781 0.170340 0.144934 0.088231 0.071217 0.080553 0.104071 64
0.044893 0.070324 0.080732 0.137741 0.180135 0.142741 0.089302 0.071931 0.080221 0.101979 64
0.052112 0.093052 0.039868 0.115294 0.114096 0.147408 0.087517 0.083486 0.104734 0.162432 65
0.055709 0.089149 0.049459 0.119146 0.123329 0.149806 0.087797 0.081803 0.088562 0.155239 65
0.056295 0.092082 0.035787 0.106112 0.090526 0.141338 0.081012 0.091853 0.128686 0.176309 65
0.047546 0.075987 0.052597 0.130395 0.148097 0.153734 0.086216 0.080400 0.090909 0.134119 65
0.048720 0.080655 0.047164 0.116723 0.135547 0.143888 0.085604 0.085068 0.107055 0.149577 65
0.043388 0.072135 0.058030 0.131925 0.156846 0.155979 0.087823 0.076880 0.091802 0.125191 65
0.050301 0.082364 0.051908 0.124809 0.138022 0.146643 0.083639 0.081777 0.096113 0.144424 65
0.052469 0.086853 0.054127 0.121544 0.131492 0.154857 0.087899 0.078130 0.083333 0.149296 65
0.049995 0.080681 0.052673 0.128023 0.139399 0.151235 0.088052 0.080349 0.091241 0.138353 65
0.048388 0.086139 0.045123 0.122896 0.131670 0.156132 0.086598 0.078972 0.095500 0.148582 65
0.061805 0.087287 0.037624 0.087517 0.077620 0.114963 0.071115 0.101801 0.178936 0.181334 66
0.054382 0.086216 0.041016 0.103357 0.094302 0.130369 0.078589 0.095373 0.156948 0.159448 66
0.053668 0.082798 0.046832 0.107030 0.109938 0.127334 0.078385 0.092924 0.139297 0.161795 66
0.058846 0.084303 0.033338 0.084711 0.063233 0.116646 0.066651 0.101214 0.219314 0.171743 66
0.053464 0.080808 0.039613 0.105806 0.115371 0.125752 0.078053 0.091139 0.143302 0.166692 66
0.062060 0.086292 0.051092 0.103000 0.102898 0.119554 0.079660 0.092414 0.147026 0.156004 66
0.054229 0.080017 0.049740 0.114631 0.116544 0.133711 0.083843 0.089914 0.131262 0.146108 66
0.057953 0.086751 0.043797 0.104403 0.083537 0.127691 0.077620 0.097260 0.160443 0.160545 66
0.053209 0.079048 0.027013 0.083665 0.071396 0.111417 0.062494 0.102796 0.216406 0.192557 66
0.057877 0.084124 0.044944 0.104556 0.100602 0.120039 0.077263 0.093970 0.151515 0.165111 66
0.045914 0.078232 0.055428 0.122896 0.170263 0.152229 0.087057 0.074635 0.079839 0.133507 67
0.035558 0.065529 0.052112 0.141822 0.197633 0.181538 0.087491 0.064254 0.067927 0.106137 67
0.043286 0.075120 0.060453 0.128252 0.180594 0.150036 0.083512 0.074023 0.076217 0.128507 67
0.036705 0.066881 0.056856 0.139654 0.199801 0.171666 0.088562 0.064968 0.068539 0.106367 67
0.047113 0.076803 0.059688 0.122794 0.173962 0.144399 0.085935 0.076701 0.081216 0.131390 67
0.042037 0.069967 0.056525 0.134425 0.187124 0.162662 0.082925 0.072187 0.074916 0.117233 67
0.036935 0.066677 0.056244 0.136109 0.196511 0.173987 0.089175 0.066549 0.067595 0.110218 67
0.040812 0.073003 0.053923 0.133099 0.182481 0.164116 0.084864 0.069636 0.078206 0.119860 67
0.043669 0.074610 0.059994 0.129273 0.177916 0.151694 0.085808 0.074814 0.079329 0.122896 67
0.047419 0.077058 0.057418 0.125421 0.176002 0.151056 0.084736 0.073666 0.078640 0.128584 67
0.055479 0.087848 0.051908 0.124222 0.112769 0.138812 0.085680 0.084762 0.109173 0.149347 68
0.049944 0.080196 0.052061 0.129426 0.126492 0.147536 0.084940 0.082364 0.108662 0.138379 68
0.049408 0.092057 0.049612 0.124426 0.110295 0.146796 0.084660 0.083257 0.099556 0.159933 68
0.047903 0.088078 0.042929 0.125676 0.104046 0.152153 0.079507 0.087338 0.114274 0.158096 68
0.056499 0.089302 0.046373 0.117743 0.105168 0.147306 0.082619 0.088205 0.113891 0.152893 68
0.052189 0.090246 0.045378 0.121544 0.106010 0.140776 0.083563 0.089251 0.112106 0.158938 68
0.051831 0.081777 0.049816 0.127181 0.117820 0.150163 0.084660 0.085935 0.109606 0.141210 68
0.051245 0.087389 0.045888 0.126926 0.108203 0.146439 0.081114 0.086318 0.117896 0.148582 68
0.046806 0.089226 0.041603 0.119605 0.105219 0.150546 0.084175 0.086930 0.108050 0.167840 68
0.055683 0.086522 0.055658 0.124962 0.118814 0.137052 0.086981 0.084175 0.101087 0.149066 68
0.070860 0.084685 0.059127 0.100041 0.113203 0.112310 0.085425 0.090756 0.123992 0.159601 69
0.064662 0.078563 0.057775 0.104607 0.125880 0.124477 0.088078 0.087899 0.110116 0.157943 69
0.064458 0.081369 0.061473 0.114631 0.135394 0.123151 0.085552 0.082543 0.104326 0.147102 69
0.058693 0.078563 0.060147 0.119376 0.138302 0.129375 0.091241 0.083206 0.099760 0.141338 69
0.068386 0.088282 0.059713 0.104275 0.109019 0.111519 0.086139 0.090858 0.117794 0.164014 69
0.069534 0.084864 0.066753 0.104046 0.114631 0.113203 0.086955 0.090144 0.114657 0.155214 69
0.067646 0.083002 0.059637 0.101316 0.122819 0.113687 0.086139 0.090067 0.115677 0.160009 69
0.069636 0.088715 0.059356 0.097796 0.111902 0.106596 0.087236 0.095271 0.118100 0.165391 69
0.063233 0.083895 0.059611 0.113075 0.129808 0.120447 0.089277 0.086675 0.105295 0.148684 69
0.070656 0.085501 0.059764 0.099760 0.114835 0.112080 0.085399 0.091062 0.123584 0.157356 69
0.026732 0.054127 0.027217 0.124222 0.215590 0.193730 0.065478 0.069304 0.116238 0.107361 70
0.025890 0.051704 0.029767 0.129068 0.226610 0.207377 0.067646 0.062825 0.098051 0.101061 70
0.024615 0.052826 0.021988 0.119580 0.218830 0.212682 0.062137 0.067493 0.112514 0.107336 70
0.023901 0.054688 0.023824 0.116544 0.209264 0.215182 0.070784 0.064764 0.101903 0.119146 70
0.026579 0.052291 0.023186 0.118151 0.221661 0.206356 0.061448 0.067901 0.119631 0.102796 70
0.027829 0.053617 0.031502 0.129273 0.222656 0.202352 0.071166 0.060734 0.102005 0.098867 70
0.039231 0.071906 0.039486 0.119707 0.138583 0.161310 0.085093 0.080476 0.136619 0.127589 70
0.028773 0.057009 0.025865 0.122947 0.195924 0.192021 0.066422 0.067136 0.137027 0.106877 70
0.027931 0.056474 0.021809 0.116289 0.179216 0.192761 0.063539 0.072059 0.155622 0.114300 70
0.027089 0.053515 0.023365 0.123176 0.218013 0.197327 0.063769 0.067493 0.118151 0.108101 70
0.053107 0.075783 0.056270 0.122615 0.144450 0.139144 0.089175 0.079482 0.092210 0.147766 71
0.064789 0.091266 0.048260 0.102668 0.100934 0.117743 0.081420 0.093332 0.118891 0.180696 71
0.046628 0.072620 0.056091 0.130752 0.163427 0.152893 0.089073 0.075120 0.082772 0.130624 71
0.063131 0.090118 0.052826 0.099939 0.103943 0.120115 0.087440 0.092695 0.114249 0.175543 71
0.062086 0.085119 0.058565 0.108662 0.117794 0.124273 0.089787 0.086802 0.103510 0.163402 71
0.061601 0.083231 0.059892 0.110882 0.126084 0.125803 0.087772 0.085859 0.101138 0.157739 71
0.062698 0.083257 0.055938 0.109683 0.124528 0.129706 0.083792 0.086624 0.101444 0.162330 71
0.050352 0.075298 0.056550 0.127768 0.149066 0.150342 0.089353 0.077594 0.087568 0.136109 71
0.049791 0.081803 0.055198 0.121110 0.131543 0.138889 0.089251 0.085833 0.096036 0.150546 71
0.059127 0.079482 0.055760 0.115498 0.132155 0.133481 0.087644 0.083997 0.096878 0.155979 71
0.055071 0.104836 0.031604 0.098561 0.146235 0.139782 0.057265 0.101979 0.110142 0.154525 72
0.056474 0.118891 0.027727 0.089430 0.125293 0.126212 0.056117 0.106520 0.124299 0.169039 72
0.055071 0.108790 0.029079 0.096291 0.148454 0.138838 0.057443 0.103637 0.107540 0.154857 72
0.055122 0.110677 0.030609 0.094021 0.137180 0.137129 0.057316 0.105882 0.116009 0.156056 72
0.057851 0.110397 0.031578 0.094608 0.142664 0.132053 0.050990 0.105372 0.113483 0.161004 72
0.062290 0.120294 0.030124 0.091088 0.123941 0.122819 0.051882 0.110269 0.120625 0.166667 72
0.057673 0.117105 0.027599 0.091317 0.128380 0.128788 0.055198 0.106647 0.121263 0.166029 72
0.060581 0.116952 0.027650 0.092006 0.132589 0.127921 0.050352 0.111213 0.115422 0.165315 72
0.059917 0.119682 0.028186 0.087950 0.127793 0.124222 0.053796 0.109963 0.119631 0.168860 72
0.058259 0.110218 0.031145 0.093664 0.141210 0.131976 0.053464 0.107642 0.113203 0.159218 72
0.043133 0.104301 0.030966 0.102158 0.160825 0.147051 0.059254 0.093001 0.114912 0.144399 73
0.043286 0.098714 0.034053 0.105219 0.160596 0.155596 0.059713 0.088766 0.117794 0.136262 73
0.044995 0.104964 0.029844 0.101699 0.165621 0.142792 0.054153 0.098179 0.108637 0.149117 73
0.047215 0.101852 0.029130 0.100474 0.173197 0.154500 0.049740 0.095424 0.104352 0.144118 73
0.048464 0.108280 0.030915 0.101673 0.158275 0.140037 0.054867 0.098536 0.112718 0.146235 73
0.047878 0.106418 0.031043 0.101826 0.159754 0.140572 0.056805 0.098128 0.111570 0.146006 73
0.046271 0.105499 0.031680 0.104275 0.160392 0.145521 0.056295 0.096062 0.110677 0.143327 73
0.043261 0.105806 0.030124 0.106035 0.158912 0.150138 0.053234 0.094480 0.116111 0.141899 73
0.046271 0.106469 0.030354 0.098612 0.161795 0.145291 0.055530 0.099327 0.107464 0.148888 73
0.044587 0.107208 0.032063 0.105499 0.158836 0.143633 0.059229 0.094200 0.113738 0.141006 73
0.045174 0.084099 0.042802 0.106928 0.133711 0.147434 0.076625 0.088817 0.133762 0.140649 74
0.040557 0.077875 0.036399 0.107719 0.134808 0.150724 0.068360 0.090475 0.150265 0.142817 74
0.044001 0.077594 0.047113 0.116876 0.146235 0.151974 0.080017 0.083741 0.120957 0.131492 74
0.041399 0.080451 0.041475 0.120243 0.142741 0.153326 0.074482 0.090067 0.121824 0.133991 74
0.047189 0.082262 0.044562 0.112106 0.144934 0.142409 0.076548 0.090169 0.120472 0.139348 74
0.045148 0.081038 0.043108 0.115575 0.143047 0.148531 0.077033 0.087236 0.121595 0.137690 74
0.045863 0.081165 0.044995 0.114708 0.143123 0.149475 0.075732 0.084430 0.122054 0.138455 74
0.041424 0.079048 0.039103 0.107489 0.128813 0.150163 0.066855 0.089379 0.151923 0.145801 74
0.044230 0.081216 0.043873 0.118406 0.140547 0.150367 0.078461 0.085935 0.117794 0.139169 74
0.046781 0.082696 0.044026 0.110193 0.138149 0.143735 0.075758 0.088282 0.130318 0.140062 74
0.034869 0.081395 0.049230 0.112463 0.151872 0.172457 0.081344 0.082134 0.117641 0.116595 75
0.030405 0.070784 0.029793 0.105117 0.151388 0.176130 0.067595 0.076727 0.127130 0.164932 75
0.033236 0.075069 0.041679 0.115651 0.170671 0.182558 0.078563 0.075987 0.104454 0.122130 75
0.024946 0.058897 0.023186 0.111698 0.161310 0.188476 0.067544 0.074508 0.099148 0.190287 75
0.028543 0.065478 0.026936 0.105882 0.161387 0.182226 0.066192 0.073615 0.116646 0.173095 75
0.027166 0.063335 0.027370 0.101597 0.149270 0.178171 0.063871 0.072238 0.113917 0.203066 75
0.027395 0.060632 0.021554 0.096062 0.142230 0.161642 0.058361 0.076370 0.120039 0.235716 75
0.034945 0.077849 0.044919 0.110601 0.147179 0.176283 0.077951 0.081242 0.127410 0.121620 75
0.026987 0.060376 0.030609 0.108790 0.165672 0.183935 0.070784 0.073360 0.096623 0.182864 75
0.033976 0.078206 0.045072 0.111290 0.152995 0.177354 0.076854 0.082109 0.119707 0.122436 75
0.047929 0.098995 0.039435 0.111468 0.192200 0.142332 0.059280 0.088256 0.090603 0.129502 76
0.048541 0.097771 0.038976 0.109530 0.183859 0.139246 0.061269 0.089685 0.094888 0.136236 76
0.045327 0.094123 0.031680 0.108178 0.192965 0.147868 0.059815 0.077416 0.118840 0.123788 76
0.049306 0.101648 0.034027 0.104989 0.180364 0.145444 0.055862 0.089940 0.103025 0.135394 76
0.047266 0.096725 0.035303 0.115090 0.193832 0.145852 0.060351 0.084660 0.089583 0.131339 76
0.049561 0.095602 0.037777 0.111060 0.182915 0.141057 0.059280 0.086675 0.095960 0.140113 76
0.051015 0.100041 0.037369 0.110958 0.173528 0.139246 0.061983 0.091904 0.094888 0.139067 76
0.048643 0.097771 0.035864 0.109989 0.190440 0.141618 0.058489 0.085884 0.096801 0.134502 76
0.048898 0.096495 0.036374 0.108305 0.188246 0.145393 0.057749 0.088307 0.100679 0.129553 76
0.045990 0.099276 0.036246 0.114121 0.190822 0.144041 0.059382 0.085399 0.095118 0.129604 76
0.070095 0.104046 0.050990 0.090552 0.139374 0.106188 0.072263 0.099913 0.110754 0.155826 77
0.069840 0.101673 0.048311 0.092848 0.137129 0.107285 0.077951 0.095245 0.110882 0.158836 77
0.067162 0.091139 0.068182 0.101061 0.125089 0.113866 0.089532 0.092950 0.106800 0.144220 77
0.066677 0.090960 0.064254 0.101112 0.130777 0.115677 0.084456 0.091572 0.109326 0.145189 77
0.072493 0.097847 0.061524 0.092848 0.127181 0.105857 0.082083 0.099454 0.105295 0.155418 77
0.074559 0.094582 0.063692 0.089863 0.126110 0.108101 0.085808 0.097209 0.104148 0.155928 77
0.075375 0.093383 0.061167 0.091929 0.129298 0.111443 0.085272 0.093536 0.100015 0.158581 77
0.068692 0.100959 0.052750 0.092975 0.139986 0.105142 0.074074 0.097898 0.111341 0.156183 77
0.068896 0.093154 0.070095 0.099378 0.113381 0.112540 0.093154 0.093766 0.106622 0.149015 77
0.071319 0.102056 0.054127 0.089710 0.138914 0.103918 0.073615 0.098128 0.109147 0.159065 77
0.043184 0.098918 0.036986 0.108917 0.148429 0.150750 0.082543 0.078130 0.123814 0.128329 78
0.044944 0.105959 0.037904 0.106673 0.147306 0.143939 0.081981 0.083843 0.115243 0.132206 78
0.043541 0.102872 0.033466 0.102107 0.149806 0.146873 0.085731 0.078053 0.135981 0.121569 78
0.041705 0.106239 0.036935 0.108331 0.143786 0.146006 0.088766 0.078563 0.125650 0.124018 78
0.041960 0.097822 0.033645 0.109402 0.142128 0.155851 0.081267 0.077798 0.129885 0.130242 78
0.042547 0.099097 0.035889 0.108611 0.148454 0.153964 0.085655 0.074661 0.127691 0.123431 78
0.044995 0.097618 0.038772 0.112438 0.145878 0.150265 0.085910 0.077849 0.126926 0.119350 78
0.042802 0.098408 0.039715 0.109198 0.147510 0.150189 0.081420 0.080681 0.121901 0.128176 78
0.043261 0.101316 0.034614 0.108662 0.157509 0.148684 0.085170 0.077645 0.120830 0.122309 78
0.041909 0.099021 0.037012 0.108611 0.142792 0.154627 0.081981 0.079099 0.127461 0.127487 78
0.064738 0.100653 0.056244 0.095143 0.126339 0.110831 0.076599 0.098332 0.118355 0.152765 79
0.067850 0.104989 0.056856 0.090297 0.118177 0.106851 0.074788 0.103535 0.116774 0.159882 79
0.067008 0.105703 0.054586 0.094480 0.132282 0.108050 0.074100 0.103178 0.105448 0.155163 79
0.068743 0.102643 0.055198 0.090960 0.137256 0.110218 0.067825 0.105168 0.106086 0.155902 79
0.066396 0.104683 0.055760 0.094072 0.136058 0.105831 0.073845 0.104071 0.108994 0.150291 79
0.069585 0.106724 0.052214 0.091955 0.131058 0.102234 0.069891 0.104275 0.110958 0.161106 79
0.068156 0.109351 0.052673 0.088971 0.125906 0.101061 0.071090 0.104632 0.111162 0.166998 79
0.071574 0.102668 0.059152 0.091649 0.114223 0.100908 0.079635 0.102388 0.115626 0.162177 79
0.066651 0.100985 0.058565 0.096419 0.138047 0.108943 0.075222 0.100985 0.103357 0.150826 79
0.068029 0.103255 0.058540 0.091521 0.126824 0.105627 0.076472 0.102005 0.110754 0.156974 79
0.072773 0.103051 0.048235 0.082032 0.073947 0.095118 0.078589 0.100576 0.135777 0.209902 80
0.082721 0.103765 0.054943 0.074890 0.076191 0.091011 0.077696 0.107004 0.130522 0.201255 80
0.076064 0.103714 0.052979 0.081216 0.074049 0.090654 0.083588 0.103051 0.136058 0.198628 80
0.080094 0.108254 0.055249 0.077773 0.074482 0.089251 0.079431 0.104913 0.131160 0.199393 80
0.071676 0.102209 0.049867 0.084583 0.078921 0.101495 0.086955 0.099072 0.129936 0.195286 80
0.075758 0.103331 0.050658 0.079635 0.071243 0.092491 0.081854 0.104020 0.135165 0.205846 80
0.082721 0.106545 0.051704 0.075171 0.075426 0.087006 0.075605 0.108994 0.133481 0.203347 80
0.075247 0.103484 0.054816 0.083843 0.081191 0.096164 0.083792 0.101112 0.125957 0.194393 80
0.074610 0.108356 0.052189 0.079737 0.071243 0.094225 0.078410 0.107004 0.132665 0.201561 80
0.076089 0.105627 0.050556 0.081471 0.075554 0.094251 0.082747 0.100372 0.130318 0.203015 80
0.044511 0.083690 0.038567 0.104734 0.222095 0.150546 0.068768 0.075554 0.089787 0.121748 81
0.048975 0.085501 0.046271 0.106953 0.197811 0.138685 0.075043 0.081879 0.090042 0.128839 81
0.046934 0.085604 0.036552 0.101852 0.196153 0.154959 0.065453 0.084583 0.091496 0.136415 81
0.042904 0.080451 0.040072 0.106698 0.193934 0.156030 0.068590 0.078563 0.089736 0.143021 81
0.050939 0.082798 0.049638 0.108662 0.176411 0.137052 0.079609 0.082747 0.092389 0.139756 81
0.053336 0.080476 0.057163 0.112642 0.164192 0.135624 0.081063 0.081293 0.089073 0.145138 81
0.048133 0.082364 0.044868 0.106392 0.195031 0.139169 0.075630 0.081981 0.086216 0.140215 81
0.048822 0.083946 0.047954 0.110831 0.191052 0.141159 0.077467 0.081012 0.086981 0.130777 81
0.044638 0.079533 0.038593 0.104275 0.201536 0.156999 0.068871 0.081344 0.083946 0.140266 81
0.048975 0.086190 0.044536 0.101418 0.214340 0.134986 0.073538 0.080298 0.089787 0.125931 81
0.040761 0.067723 0.068845 0.148352 0.174395 0.163045 0.092235 0.070324 0.070605 0.103714 82
0.037267 0.062978 0.066881 0.150597 0.187608 0.172737 0.092108 0.067136 0.066651 0.096036 82
0.046704 0.073513 0.069789 0.144118 0.155061 0.147536 0.087338 0.074890 0.071804 0.129247 82
0.041832 0.068998 0.065733 0.145393 0.172763 0.161871 0.087083 0.070809 0.065657 0.119860 82
0.045863 0.075681 0.066600 0.136389 0.163912 0.156693 0.086853 0.073691 0.068768 0.125548 82
0.048005 0.076268 0.066728 0.135547 0.153530 0.148811 0.082696 0.075043 0.076625 0.136746 82
0.043439 0.070605 0.065146 0.141542 0.173095 0.158122 0.088333 0.070911 0.068717 0.120090 82
0.041909 0.064738 0.068258 0.148684 0.178706 0.159014 0.090322 0.069942 0.074049 0.104377 82
0.047240 0.073589 0.073309 0.143608 0.161055 0.145546 0.089200 0.074380 0.071243 0.120830 82
0.042445 0.069304 0.072110 0.145852 0.175467 0.157356 0.091445 0.070375 0.067723 0.107923 82
0.035149 0.061193 0.035583 0.118049 0.184190 0.156515 0.070809 0.076344 0.104811 0.157356 83
0.033236 0.064356 0.036527 0.128482 0.184114 0.158504 0.076242 0.073666 0.097005 0.147868 83
0.032063 0.063667 0.033058 0.114810 0.189981 0.161412 0.069151 0.075630 0.102974 0.157254 83
0.032318 0.061524 0.032293 0.118661 0.183680 0.162075 0.071727 0.075196 0.116213 0.146312 83
0.034945 0.064381 0.035149 0.116519 0.171079 0.148046 0.070962 0.072850 0.104403 0.181665 83
0.032395 0.060198 0.032267 0.110065 0.164626 0.148454 0.067391 0.067442 0.104224 0.212937 83
0.031247 0.057673 0.032650 0.107999 0.168401 0.146567 0.066728 0.067034 0.101775 0.219927 83
0.035762 0.067391 0.033772 0.122488 0.182532 0.158759 0.069942 0.076752 0.105652 0.146949 83
0.034078 0.067621 0.032191 0.116825 0.186129 0.157152 0.070095 0.073360 0.108025 0.154525 83
0.035252 0.062545 0.036119 0.114223 0.184624 0.152765 0.070758 0.071319 0.100321 0.172074 83
0.034410 0.065070 0.008596 0.091292 0.110856 0.124987 0.037114 0.090246 0.268416 0.169013 84
0.033568 0.060274 0.008035 0.089965 0.120702 0.131696 0.033287 0.082721 0.278033 0.161718 84
0.039358 0.064942 0.007907 0.088639 0.116748 0.125089 0.032216 0.088971 0.285813 0.150316 84
0.031145 0.055428 0.005306 0.097209 0.115932 0.157050 0.030686 0.094021 0.287981 0.125242 84
0.037165 0.069585 0.009871 0.088435 0.117641 0.118636 0.038772 0.086241 0.249337 0.184318 84
0.038848 0.069075 0.008366 0.087236 0.102209 0.121901 0.033160 0.077007 0.286756 0.175441 84
0.038976 0.064534 0.007525 0.082645 0.109453 0.118406 0.024079 0.064203 0.357336 0.132844 84
0.034869 0.061550 0.007831 0.092797 0.120090 0.127104 0.034716 0.080145 0.278875 0.162024 84
0.035889 0.061320 0.007474 0.095067 0.118406 0.130140 0.032573 0.079966 0.292343 0.146822 84
0.036425 0.069177 0.009030 0.091598 0.117463 0.117692 0.038465 0.090144 0.245307 0.184701 84
0.037241 0.078155 0.056805 0.164805 0.191562 0.125268 0.080604 0.091241 0.077084 0.097235 85
0.039409 0.078232 0.063029 0.166794 0.172993 0.121136 0.083129 0.097082 0.075707 0.102490 85
0.034563 0.073947 0.057239 0.173350 0.189088 0.129885 0.082619 0.088129 0.075477 0.095705 85
0.033517 0.078844 0.054739 0.168503 0.186894 0.126875 0.083231 0.093230 0.072697 0.101469 85
0.036017 0.077900 0.056729 0.168325 0.192174 0.127691 0.081216 0.087899 0.073947 0.098102 85
0.035405 0.079609 0.054382 0.169166 0.185160 0.119733 0.080936 0.092720 0.078104 0.104785 85
0.037088 0.077543 0.058259 0.164754 0.179369 0.123788 0.082798 0.095296 0.071982 0.109122 85
0.038210 0.073309 0.057392 0.177762 0.180466 0.116136 0.080374 0.097745 0.073819 0.104785 85
0.033389 0.079992 0.054765 0.171360 0.188093 0.121365 0.082517 0.091088 0.078946 0.098485 85
0.038210 0.076421 0.057826 0.172202 0.189879 0.118814 0.081701 0.092873 0.073564 0.098510 85
0.059892 0.094710 0.086828 0.109938 0.135343 0.107974 0.082262 0.099939 0.090246 0.132869 86
0.062137 0.090501 0.083282 0.114274 0.136287 0.116697 0.075502 0.096036 0.090680 0.134604 86
0.057571 0.093128 0.085604 0.112131 0.137971 0.115141 0.086649 0.094939 0.086292 0.130573 86
0.053362 0.089685 0.085425 0.120625 0.146745 0.129910 0.088358 0.090705 0.074890 0.120294 86
0.056372 0.090705 0.087313 0.116315 0.140470 0.117182 0.086624 0.097005 0.083231 0.124783 86
0.051117 0.085119 0.090118 0.123839 0.150699 0.128813 0.085450 0.089532 0.078538 0.116774 86
0.053974 0.088154 0.087134 0.120600 0.149117 0.130114 0.086802 0.089379 0.075120 0.119605 86
0.058412 0.090169 0.085042 0.116774 0.137818 0.115779 0.082543 0.098485 0.086598 0.128380 86
0.052291 0.088613 0.088307 0.117309 0.152969 0.129273 0.087568 0.089226 0.076650 0.117794 86
0.057545 0.092542 0.087287 0.115447 0.138251 0.109402 0.085068 0.100602 0.086267 0.127589 86
0.074431 0.112871 0.058004 0.095041 0.094047 0.104479 0.094633 0.113636 0.095705 0.157152 87
0.071702 0.107055 0.061932 0.101010 0.098230 0.107030 0.092975 0.113203 0.094353 0.152510 87
0.073947 0.102872 0.072365 0.101954 0.093485 0.111111 0.079227 0.106418 0.095016 0.163606 87
0.068105 0.102056 0.071574 0.103535 0.106035 0.116672 0.086063 0.102183 0.091394 0.152382 87
0.072671 0.109504 0.062825 0.098714 0.100934 0.107974 0.086624 0.109428 0.094225 0.157101 87
0.071574 0.100296 0.071268 0.111953 0.102234 0.109275 0.079150 0.104734 0.093587 0.155928 87
0.068973 0.099097 0.072135 0.110065 0.107259 0.116162 0.080630 0.102668 0.089404 0.153607 87
0.076370 0.113560 0.060581 0.093740 0.086930 0.100194 0.089481 0.114708 0.099582 0.164856 87
0.067544 0.098434 0.075222 0.112769 0.105423 0.116442 0.084201 0.097924 0.089812 0.152229 87
0.078079 0.114835 0.057443 0.090501 0.087006 0.099990 0.092746 0.112259 0.101061 0.166080 87
0.050888 0.097949 0.059790 0.120039 0.164167 0.139016 0.076242 0.097592 0.079660 0.114657 88
0.045990 0.087593 0.062417 0.133277 0.180670 0.143455 0.079507 0.092006 0.072646 0.102439 88
0.045378 0.098612 0.060223 0.124936 0.170544 0.149398 0.073921 0.093307 0.073385 0.110295 88
0.051372 0.109351 0.059127 0.110499 0.155596 0.138251 0.074559 0.105168 0.076931 0.119146 88
0.054382 0.104046 0.056499 0.110244 0.162687 0.134553 0.073615 0.101393 0.078921 0.123661 88
0.052622 0.101852 0.057137 0.116391 0.160086 0.136364 0.077058 0.100168 0.075630 0.122692 88
0.053234 0.100041 0.061473 0.121671 0.159014 0.131976 0.072697 0.102872 0.075375 0.121646 88
0.049918 0.094633 0.058514 0.126263 0.167304 0.144271 0.074304 0.098026 0.076140 0.110626 88
0.047852 0.099862 0.058667 0.123406 0.161820 0.143710 0.078283 0.095781 0.074508 0.116111 88
0.052367 0.100219 0.057979 0.114657 0.167228 0.137614 0.074074 0.099531 0.080017 0.116315 88
0.057163 0.093740 0.048771 0.117794 0.104913 0.137716 0.081318 0.088766 0.107183 0.162636 89
0.050633 0.083639 0.037700 0.116697 0.108178 0.148786 0.081165 0.085476 0.128329 0.159397 89
0.045531 0.089710 0.028722 0.082976 0.072289 0.110167 0.077543 0.090705 0.163555 0.238802 89
0.051321 0.088052 0.049281 0.124834 0.122411 0.146949 0.085374 0.081981 0.099454 0.150342 89
0.058642 0.089226 0.042853 0.104224 0.098765 0.134068 0.078436 0.089353 0.136517 0.167917 89
0.050173 0.084379 0.045021 0.116595 0.120753 0.145317 0.083231 0.084711 0.116595 0.153224 89
0.047623 0.077518 0.047827 0.132308 0.144985 0.160392 0.081420 0.073487 0.101979 0.132461 89
0.049306 0.083078 0.046628 0.121926 0.117998 0.147102 0.078538 0.083843 0.119733 0.151847 89
0.048694 0.089226 0.049281 0.114529 0.112922 0.138353 0.083410 0.086114 0.108458 0.169013 89
0.055428 0.090042 0.047342 0.119427 0.110524 0.140496 0.080757 0.083920 0.111519 0.160545 89
0.048592 0.088103 0.063080 0.121442 0.186920 0.139527 0.083231 0.085808 0.075477 0.107821 90
0.050505 0.092975 0.062953 0.118304 0.176334 0.137614 0.085144 0.093077 0.071829 0.111264 90
0.047776 0.092057 0.065580 0.118967 0.179905 0.143608 0.086292 0.089889 0.068717 0.107208 90
0.051806 0.097031 0.061473 0.113330 0.166769 0.142460 0.088333 0.093893 0.068768 0.116136 90
0.046245 0.087108 0.062468 0.123865 0.192965 0.144832 0.084201 0.087440 0.065708 0.105168 90
0.047317 0.093638 0.061244 0.122564 0.185568 0.138149 0.082900 0.093664 0.063616 0.111341 90
0.052240 0.094353 0.061677 0.113534 0.178349 0.138659 0.081216 0.094047 0.070146 0.115779 90
0.051474 0.093970 0.061014 0.116672 0.176513 0.137562 0.079839 0.094582 0.069585 0.118789 90
0.049918 0.093842 0.065376 0.114759 0.176436 0.136874 0.083563 0.093409 0.070222 0.115600 90
0.047776 0.087950 0.061448 0.124707 0.188807 0.139731 0.083461 0.087517 0.070758 0.107846 90
0.050837 0.089379 0.058667 0.110831 0.183272 0.154831 0.087721 0.082185 0.068054 0.114223 91
0.050658 0.091037 0.054408 0.111315 0.186461 0.156846 0.088231 0.084838 0.061830 0.114376 91
0.052010 0.084813 0.057826 0.110780 0.189292 0.163810 0.089379 0.079482 0.070299 0.102311 91
0.049714 0.085068 0.056168 0.115320 0.194521 0.157662 0.087874 0.083920 0.059127 0.110626 91
0.051066 0.085450 0.061881 0.112412 0.192098 0.150291 0.090654 0.082670 0.069432 0.104046 91
0.050658 0.088256 0.061754 0.116264 0.184037 0.151643 0.087415 0.086343 0.065631 0.107999 91
0.051041 0.088409 0.054153 0.113075 0.188348 0.158683 0.084762 0.086012 0.059076 0.116442 91
0.051933 0.090680 0.056805 0.114376 0.173477 0.157101 0.093001 0.086114 0.060734 0.115779 91
0.053668 0.086420 0.061422 0.107923 0.179165 0.157688 0.092669 0.085578 0.070682 0.104785 91
0.052801 0.085527 0.059076 0.111902 0.188705 0.153811 0.087899 0.082594 0.067162 0.110524 91
0.044332 0.103688 0.047648 0.112795 0.167330 0.136593 0.072008 0.102005 0.073436 0.140164 92
0.044460 0.106341 0.044536 0.108968 0.171845 0.134808 0.067697 0.104887 0.075936 0.140521 92
0.040328 0.102158 0.045174 0.116034 0.161208 0.153632 0.070171 0.097209 0.073742 0.140343 92
0.041195 0.098944 0.046041 0.116519 0.166284 0.147868 0.072901 0.099913 0.072110 0.138226 92
0.041986 0.102745 0.048337 0.119682 0.166743 0.142945 0.069151 0.102413 0.071727 0.134272 92
0.044103 0.100449 0.046194 0.116621 0.173528 0.143506 0.067315 0.102388 0.071447 0.134451 92
0.044154 0.099327 0.048082 0.113815 0.177813 0.146286 0.067621 0.098459 0.072646 0.131798 92
0.044740 0.101699 0.047546 0.110218 0.175900 0.137409 0.071319 0.099378 0.074533 0.137256 92
0.039103 0.101648 0.047980 0.119656 0.164703 0.147026 0.072110 0.099862 0.071523 0.136389 92
0.043337 0.104505 0.046755 0.113075 0.173171 0.133966 0.072416 0.100398 0.074355 0.138022 92
0.054484 0.094455 0.065682 0.106877 0.146057 0.151872 0.099276 0.083843 0.067850 0.129604 93
0.053515 0.093256 0.067595 0.110728 0.146312 0.150903 0.093103 0.086420 0.069049 0.129119 93
0.049663 0.095628 0.062749 0.111264 0.155010 0.152459 0.096291 0.081905 0.067595 0.127436 93
0.051908 0.090424 0.063055 0.116034 0.150597 0.149015 0.097567 0.082237 0.069330 0.129834 93
0.052189 0.095016 0.066626 0.110575 0.148480 0.149347 0.097056 0.083512 0.069559 0.127640 93
0.049969 0.092235 0.068488 0.116289 0.149245 0.152484 0.099684 0.080834 0.066218 0.124554 93
0.051423 0.089379 0.067085 0.116111 0.149321 0.147128 0.098000 0.083869 0.068411 0.129273 93
0.051755 0.094149 0.068411 0.110244 0.144832 0.153148 0.098459 0.083333 0.068871 0.126798 93
0.049485 0.091292 0.065197 0.116519 0.158147 0.151388 0.095041 0.083792 0.064815 0.124324 93
0.053209 0.092542 0.067059 0.109351 0.151362 0.154015 0.096827 0.083741 0.066065 0.125829 93
0.032242 0.075043 0.052087 0.131976 0.249209 0.173375 0.080859 0.063106 0.057443 0.084660 94
0.032573 0.076523 0.053847 0.137639 0.236226 0.168044 0.080272 0.069100 0.055887 0.089889 94
0.034257 0.077084 0.054408 0.123890 0.240537 0.170085 0.081599 0.067825 0.060019 0.090297 94
0.033900 0.077926 0.055709 0.135828 0.228114 0.170187 0.080425 0.069865 0.058285 0.089761 94
0.032267 0.081063 0.053362 0.130854 0.241149 0.164830 0.078870 0.070937 0.062009 0.084660 94
0.033925 0.078767 0.055556 0.132129 0.231354 0.167228 0.081548 0.068896 0.061065 0.089532 94
0.034767 0.078818 0.054076 0.137869 0.228421 0.165697 0.077288 0.072314 0.058795 0.091955 94
0.034359 0.078334 0.051959 0.127130 0.232502 0.174217 0.084915 0.066702 0.061601 0.088282 94
0.034843 0.080961 0.053923 0.126875 0.232094 0.165238 0.080757 0.073640 0.060759 0.090909 94
0.033236 0.075936 0.050071 0.129910 0.250842 0.168682 0.080119 0.065733 0.060606 0.084864 94
0.048362 0.092261 0.056168 0.121187 0.170391 0.138098 0.071039 0.103459 0.073028 0.126008 95
0.048669 0.094914 0.057392 0.121442 0.157586 0.136619 0.071574 0.105321 0.073947 0.132537 95
0.044077 0.095194 0.054204 0.129451 0.162126 0.139476 0.067340 0.102388 0.073819 0.131925 95
0.048260 0.097720 0.057009 0.124094 0.144985 0.138991 0.067034 0.108713 0.076319 0.136874 95
0.048031 0.094123 0.058438 0.123431 0.172431 0.131721 0.069865 0.105601 0.071192 0.125166 95
0.049077 0.094225 0.059713 0.124605 0.164983 0.131313 0.071013 0.104709 0.073181 0.127181 95
0.049867 0.094684 0.060376 0.123074 0.153785 0.129936 0.071192 0.103255 0.076166 0.137665 95
0.049612 0.091751 0.056856 0.119554 0.169039 0.138634 0.070580 0.105091 0.072212 0.126671 95
0.044434 0.093358 0.052877 0.130854 0.159882 0.143480 0.067391 0.101112 0.074686 0.131925 95
0.050224 0.090348 0.057367 0.121595 0.173987 0.135726 0.072697 0.102719 0.071243 0.124094 95
0.048822 0.068590 0.065299 0.135598 0.164958 0.136211 0.082976 0.080400 0.093128 0.124018 96
0.056117 0.076115 0.070044 0.124860 0.163402 0.132180 0.085323 0.084481 0.082925 0.124554 96
0.059356 0.075809 0.070299 0.124120 0.153454 0.129987 0.084711 0.083639 0.089047 0.129579 96
0.052087 0.068513 0.067187 0.134144 0.171360 0.142281 0.085068 0.079635 0.082874 0.116850 96
0.055300 0.074916 0.065197 0.128023 0.155826 0.132869 0.083971 0.081293 0.096495 0.126110 96
0.053872 0.070478 0.070809 0.130395 0.161999 0.136440 0.085680 0.078436 0.087925 0.123967 96
0.053847 0.071039 0.065606 0.130089 0.167968 0.137741 0.082441 0.080476 0.085833 0.124962 96
0.051627 0.071600 0.063871 0.128252 0.165111 0.132844 0.081573 0.083053 0.094302 0.127768 96
0.051449 0.071166 0.072569 0.134731 0.168146 0.135394 0.086394 0.080604 0.082160 0.117386 96
0.052291 0.072799 0.066753 0.129451 0.161565 0.133915 0.083971 0.080732 0.094149 0.124375 96
0.033976 0.066116 0.042496 0.117743 0.234746 0.189470 0.064330 0.057698 0.101495 0.091929 97
0.036297 0.064917 0.039970 0.114402 0.203576 0.185619 0.066192 0.064662 0.110142 0.114223 97
0.033415 0.065121 0.041883 0.123202 0.216228 0.190644 0.066422 0.062341 0.102872 0.097873 97
0.039129 0.066422 0.044587 0.119172 0.204265 0.182124 0.068692 0.068080 0.098332 0.109198 97
0.036527 0.067672 0.039868 0.117922 0.209009 0.188348 0.061320 0.058055 0.128150 0.093128 97
0.039078 0.068335 0.044052 0.115167 0.193807 0.185491 0.062290 0.060759 0.130803 0.100219 97
0.046832 0.072697 0.045965 0.106290 0.183196 0.171284 0.062876 0.055530 0.151133 0.104199 97
0.039970 0.071192 0.042062 0.119911 0.198908 0.186512 0.068717 0.066779 0.096062 0.109887 97
0.035481 0.065631 0.043133 0.125778 0.209519 0.188603 0.064866 0.058336 0.111698 0.096954 97
0.035660 0.066830 0.041042 0.117845 0.215412 0.190108 0.063208 0.058616 0.117488 0.093791 97
0.051576 0.082594 0.027727 0.086088 0.112795 0.118687 0.063514 0.092950 0.181793 0.182277 98
0.058744 0.082517 0.028620 0.085297 0.111264 0.115371 0.065172 0.088868 0.195490 0.168656 98
0.052699 0.077569 0.029028 0.093817 0.109759 0.118636 0.065325 0.094047 0.178273 0.180849 98
0.048592 0.079278 0.024538 0.097235 0.113075 0.135343 0.060325 0.091011 0.179522 0.171079 98
0.055173 0.083308 0.028058 0.085552 0.107719 0.112335 0.063795 0.092312 0.179471 0.192276 98
0.054280 0.085144 0.030609 0.090884 0.109912 0.121340 0.068641 0.092924 0.167202 0.179063 98
0.050888 0.087619 0.025712 0.093281 0.104658 0.126900 0.058412 0.089914 0.184394 0.178222 98
0.051806 0.079125 0.026120 0.093766 0.114580 0.131415 0.065912 0.088078 0.179165 0.170034 98
0.044128 0.075758 0.030558 0.106035 0.138787 0.139246 0.067136 0.087746 0.156744 0.153862 98
0.050403 0.083869 0.028747 0.088945 0.113254 0.121493 0.064126 0.090501 0.179267 0.179395 98
0.046169 0.072850 0.038185 0.114657 0.162509 0.144756 0.071702 0.081548 0.129553 0.138073 99
0.050684 0.076548 0.034614 0.108739 0.135853 0.140853 0.073615 0.088792 0.141873 0.148429 99
0.040021 0.073130 0.037649 0.114274 0.150189 0.141032 0.077314 0.081471 0.118075 0.166845 99
0.048822 0.079507 0.035762 0.108688 0.128966 0.140062 0.077416 0.088027 0.138863 0.153887 99
0.039052 0.068462 0.033542 0.104326 0.143200 0.133532 0.069100 0.078640 0.126237 0.203908 99
0.043006 0.073666 0.033823 0.103841 0.126926 0.130854 0.074661 0.083333 0.135879 0.194011 99
0.051092 0.079558 0.031706 0.097490 0.111392 0.128380 0.076370 0.091980 0.160545 0.171488 99
0.044383 0.076650 0.036323 0.117845 0.148658 0.149143 0.071778 0.083435 0.126288 0.145495 99
0.035328 0.074151 0.027676 0.094761 0.114376 0.130216 0.072875 0.083639 0.140521 0.226456 99
0.046475 0.076344 0.037241 0.111213 0.150877 0.140547 0.075222 0.081879 0.133915 0.146286 99
0.086751 0.100679 0.040583 0.058846 0.051372 0.074227 0.071523 0.111264 0.174191 0.230563 100
0.078130 0.100755 0.038363 0.063437 0.051143 0.078665 0.071727 0.112029 0.180517 0.225232 100
0.084711 0.095628 0.050378 0.074329 0.070146 0.087823 0.075987 0.105397 0.155673 0.199929 100
0.077824 0.093281 0.047164 0.072901 0.076727 0.093893 0.078130 0.105780 0.153403 0.200898 100
0.095756 0.099760 0.045863 0.057520 0.053285 0.066804 0.071676 0.112335 0.175110 0.221891 100
0.088613 0.100883 0.041960 0.060606 0.049408 0.069916 0.074865 0.110933 0.171003 0.231813 100
0.085655 0.100347 0.040072 0.062876 0.053209 0.073972 0.073028 0.110320 0.173426 0.227094 100
0.084277 0.102796 0.040940 0.061167 0.054051 0.075630 0.073283 0.111290 0.168631 0.227936 100
0.081012 0.095500 0.049408 0.071294 0.070911 0.089863 0.075681 0.107081 0.155877 0.203372 100
0.088307 0.100551 0.040685 0.056219 0.050633 0.072518 0.071268 0.110728 0.176640 0.232451 100
0.034894 0.066320 0.036068 0.101801 0.110473 0.128762 0.073947 0.078640 0.126747 0.242348 101
0.039792 0.071064 0.041654 0.118789 0.142766 0.151056 0.084201 0.081548 0.114937 0.154193 101
0.035022 0.061626 0.050786 0.139399 0.156004 0.173809 0.087440 0.075656 0.114427 0.105831 101
0.037139 0.060402 0.043057 0.127819 0.160111 0.169549 0.083690 0.075911 0.112208 0.130114 101
0.036501 0.060121 0.056882 0.142128 0.175518 0.169524 0.093613 0.070350 0.086700 0.108662 101
0.037547 0.065223 0.050633 0.136568 0.168044 0.168376 0.091164 0.072391 0.091802 0.118253 101
0.038210 0.066192 0.048566 0.125242 0.161081 0.163555 0.088205 0.074253 0.107591 0.127104 101
0.038287 0.062213 0.054943 0.139144 0.175110 0.175033 0.092669 0.067238 0.084813 0.110550 101
0.030839 0.055683 0.054331 0.156770 0.209060 0.186078 0.092287 0.059790 0.066039 0.089124 101
0.033032 0.064866 0.042241 0.110882 0.127921 0.140011 0.080323 0.077007 0.112361 0.211356 101
0.036068 0.067799 0.027191 0.108050 0.128992 0.151974 0.072518 0.090935 0.158606 0.157867 102
0.041424 0.072977 0.025788 0.096266 0.101469 0.132155 0.071829 0.096062 0.172125 0.189904 102
0.049000 0.088588 0.019845 0.071166 0.061116 0.101673 0.066320 0.109300 0.205183 0.227808 102
0.050403 0.077186 0.033976 0.103943 0.108841 0.141695 0.071192 0.087159 0.175492 0.150112 102
0.057826 0.082390 0.032650 0.090016 0.084277 0.117437 0.069100 0.101801 0.182073 0.182430 102
0.064738 0.088613 0.036807 0.084762 0.074941 0.111137 0.076574 0.102030 0.176258 0.184139 102
0.048413 0.073819 0.035915 0.102617 0.110014 0.139909 0.080094 0.089557 0.156107 0.163555 102
0.045965 0.082390 0.017192 0.070503 0.060198 0.103076 0.063259 0.111519 0.208907 0.236991 102
0.053311 0.078844 0.030482 0.091445 0.082798 0.123686 0.068513 0.096368 0.204163 0.170391 102
0.041832 0.068845 0.034002 0.112897 0.131084 0.150291 0.075298 0.088231 0.148199 0.149321 102
0.066014 0.088664 0.072926 0.110831 0.126033 0.126212 0.095169 0.084073 0.084379 0.145699 103
0.062774 0.087338 0.074431 0.115575 0.128915 0.129170 0.094353 0.084252 0.082568 0.140623 103
0.062060 0.085450 0.072697 0.114453 0.137231 0.132384 0.094200 0.083971 0.078997 0.138557 103
0.059637 0.084609 0.074431 0.119860 0.135190 0.133813 0.096801 0.083359 0.078691 0.133609 103
0.064458 0.088792 0.071192 0.112948 0.132537 0.130471 0.093383 0.083920 0.081726 0.140572 103
0.065784 0.088715 0.072467 0.108586 0.131186 0.129732 0.092363 0.084099 0.083104 0.143965 103
0.064203 0.086547 0.073360 0.111162 0.130701 0.134731 0.095705 0.083716 0.081140 0.138736 103
0.066422 0.088435 0.073742 0.107974 0.124834 0.128635 0.093001 0.085884 0.084201 0.146873 103
0.061473 0.085323 0.077722 0.113891 0.137333 0.131364 0.095705 0.083053 0.080349 0.133787 103
0.067391 0.086828 0.073360 0.109351 0.126135 0.127053 0.093256 0.085986 0.084354 0.146286 103
0.097286 0.093460 0.052342 0.081191 0.135675 0.097235 0.069534 0.097414 0.107234 0.168631 104
0.107668 0.091572 0.048031 0.078283 0.120447 0.095551 0.066626 0.096725 0.114478 0.180619 104
0.098944 0.107693 0.048515 0.085348 0.122539 0.081318 0.062137 0.101928 0.108688 0.182890 104
0.104785 0.100168 0.047980 0.086573 0.120115 0.080221 0.060249 0.099633 0.113738 0.186537 104
0.097465 0.103918 0.046016 0.070835 0.149015 0.088384 0.063157 0.105091 0.109096 0.167024 104
0.080451 0.118330 0.046628 0.080961 0.146235 0.084787 0.068794 0.109606 0.097567 0.166641 104
0.113917 0.092593 0.047648 0.073640 0.117284 0.092873 0.061040 0.095067 0.119886 0.186052 104
0.076293 0.111800 0.050250 0.085476 0.145521 0.098944 0.070069 0.110907 0.091598 0.159142 104
0.081879 0.117514 0.046449 0.089175 0.143684 0.084150 0.063743 0.106469 0.096572 0.170365 104
0.085374 0.103663 0.051015 0.080834 0.155316 0.095985 0.067442 0.104658 0.098765 0.156948 104
0.073411 0.080936 0.053566 0.102566 0.130318 0.123635 0.075809 0.090144 0.116621 0.152995 105
0.073156 0.081879 0.061320 0.103943 0.130982 0.125855 0.081854 0.087823 0.105474 0.147715 105
0.065886 0.080323 0.057673 0.108127 0.142945 0.135292 0.077237 0.084481 0.107387 0.140649 105
0.059458 0.077186 0.061014 0.112897 0.158020 0.144730 0.075528 0.080936 0.100704 0.129528 105
0.074992 0.081497 0.053872 0.099276 0.132537 0.126824 0.072952 0.087236 0.120753 0.150061 105
0.079150 0.088052 0.053974 0.096036 0.123202 0.120268 0.071625 0.091496 0.115141 0.161055 105
0.073666 0.084277 0.060530 0.102898 0.131976 0.124809 0.074100 0.086063 0.107208 0.154474 105
0.077773 0.083665 0.055454 0.097567 0.124936 0.119656 0.074151 0.092082 0.117182 0.157535 105
0.070375 0.082313 0.053056 0.102209 0.141618 0.130038 0.075120 0.086012 0.110652 0.148607 105
0.075451 0.082339 0.052724 0.101801 0.132308 0.125064 0.073845 0.090475 0.114402 0.151592 105
0.057341 0.076803 0.043006 0.107566 0.162790 0.144016 0.067850 0.080476 0.109045 0.151107 106
0.056882 0.077747 0.038746 0.106010 0.149015 0.140776 0.063233 0.087262 0.115753 0.164575 106
0.052367 0.074839 0.041348 0.110882 0.173681 0.153275 0.060963 0.081548 0.105397 0.145699 106
0.051933 0.074635 0.035124 0.106647 0.159729 0.151158 0.061626 0.085501 0.117973 0.155673 106
0.060836 0.079558 0.045939 0.106979 0.153913 0.139782 0.066218 0.083180 0.110244 0.153352 106
0.064381 0.083486 0.046118 0.100449 0.136415 0.130675 0.063106 0.085527 0.116238 0.173605 106
0.059866 0.079125 0.038823 0.103688 0.144883 0.138889 0.060810 0.085501 0.120778 0.167636 106
0.065835 0.081267 0.044409 0.102566 0.139935 0.132563 0.065044 0.085246 0.114708 0.168427 106
0.053387 0.076727 0.040838 0.107157 0.152102 0.144909 0.062545 0.085170 0.117156 0.160009 106
0.063182 0.080553 0.043337 0.104403 0.147842 0.136925 0.068182 0.084150 0.112055 0.159371 106
0.067544 0.098714 0.034741 0.090424 0.086139 0.118024 0.071268 0.098255 0.156004 0.178885 107
0.070095 0.101036 0.029742 0.083690 0.066549 0.110218 0.069967 0.098077 0.169421 0.201204 107
0.061422 0.096342 0.031221 0.091037 0.088817 0.124962 0.070580 0.095934 0.155622 0.184063 107
